one,0.073525,-0.031703,0.05401,-0.040015,-0.011894,0.002958,-0.065406,0.079166,0.099932,-0.134534,0.016396,0.056965,-0.057572,0.010251,0.050909,0.072398,-0.061399,0.162734,0.082844,-0.052345,0.019466,0.058028,0.010818,0.030207,0.000889,-0.021392,0.030583,0.038453,-0.165726,0.112191,-0.058096,-0.111807,-0.033361,0.094921,0.013087,-0.010414,0.073115,-0.058642,0.099049,0.07455,0.035721,-0.059482,0.06792,-0.058917,0.004033,0.040625,-0.106188,0.088392,0.009051,0.019659,-0.026113,-0.09077,0.043568,-0.062696,-0.030408,0.03884,0.004035,0.013125,0.02305,-0.041966,-0.025127,-0.034154,0.016506,-0.079488,-0.039066,0.013653,-0.063375,0.091463,0.05381,0.024699,0.062898,0.12055,-0.048261,-0.017775,0.029978,0.022461,0.094113,-0.098662,0.011137,-0.080405,-0.056159,-0.055153,-0.0306,0.108031,0.082347,0.058076,-0.113915,0.003602,0.019997,-0.033987,0.027162,0.007531,-0.019095,-0.048414,-0.024189,0.04996,0.032027,-0.009882,0.045991,0.055946,-0.028849,-0.019265,-0.041771,-0.06572,-0.024059,-0.002533,0.02972,0.041398,0.123978,0.050968,0.072876,-0.091089,-0.011735,-0.014177,0.058902,-0.145468,-0.12125,0.084168,-0.155788,-0.009348,-0.015042,0.063526,0.039869,0.025571,0.044058,0.019486,0.112362,0.031733,0.039299,-0.051543,-0.022537,-0.026686,-0.100046,0.115309,0.008369,0.01551,-0.065277,0.031222,0.109851,-0.006308,-0.016031,-0.038418,0.034439,0.025142,0.142227,0.04277,-0.01852,-0.005247,-0.021285,-0.019829,0.131366,-0.002935,0.018499,0.040565,-0.03535,-0.075773,-0.017759,0.033599,0.023961,-0.106251,-0.040328,-0.012546,0.006421,-0.082573,-0.031654,-0.010218,0.053183,0.068255,-0.027139,-0.062169,0.043021,0.027036,-0.006469,-0.142859,0.022744,0.000512,-0.065334,-0.052299,-0.017929,0.03619,0.030412,0.022339,0.080582,-0.007923,-0.006414,-0.024119,-0.039354,-0.00177,0.01856,0.079291,-0.037962,0.004094,0.057353,-0.126054,0.039407,-0.047057,0.028695,-0.041185,-0.042427,0.063292,-0.015259,-0.012919,0.029772,0.001388,-0.046082,0.112506,-0.004109,0.020585,0.018128,-0.025253,0.016204,0.035294,-0.042431,-0.014868,-0.141065,-0.073506,-0.021315,0.067625,0.073685,0.023866,-0.010576,-0.042903,-0.071802,-0.071728,0.019136,-0.087325,-0.042621,-0.064981,-0.013045,0.039378,-0.029022,-0.054649,-0.008433,0.03112,-0.018196,-0.003567,0.021799,0.094146,-0.017547,0.036818,0.012625,0.053266,-0.078154,-0.069845,0.019453,0.047343,-0.033813,-0.001188,0.04178,0.010779,0.005534,0.010311,0.093365,-0.010763,0.040849,0.021107,0.047443,-0.017278,-0.068958,0.033909,-0.011073,0.067898,-0.00054,-0.012711,-0.042463,-0.015018,0.051556,-0.023581,-0.064241,0.026324,-0.039002,-0.013781,-0.060861,-0.048069,-0.02534,0.079009,0.102468,0.044573,-0.041997,0.081503,-0.010224,-0.028924,0.008187,-0.062565,0.076221,-0.039867,0.029696,0.094235,-0.072826,0.038318,0.048875,0.014754,-0.038729,0.033155,-0.12039,-0.065746,-0.023745,0.012824,0.005162,-0.130008
time,0.061892,0.066106,0.026482,-0.122901,0.016603,0.024152,-0.057542,0.119501,0.033247,-0.013086,0.079039,-0.083249,0.023198,-0.025619,-0.016357,0.012954,-0.017274,0.054739,0.121811,-0.023109,-0.102917,0.001137,-0.017986,-0.002791,-0.026269,0.112509,0.07102,-0.034336,0.023885,0.026277,-0.019357,-0.082007,-0.022815,0.073453,0.063381,-0.024011,0.022795,-0.079441,-0.001528,0.032425,0.006489,0.026504,0.069825,-0.08171,0.057926,0.050045,0.002652,0.013719,0.029804,-0.00393,0.030839,0.022774,0.066401,-0.019567,-0.040163,0.076355,0.114934,-0.00937,0.025677,-0.051246,-0.082725,0.024606,0.009986,-0.030213,0.066109,0.047844,0.029886,-0.011177,-0.022114,0.126251,-0.070488,0.08287,0.006496,-0.001045,-0.004949,-0.004077,0.028896,-0.197201,0.014034,0.054796,-0.143601,-0.099521,-0.016285,0.056601,0.066414,0.030012,0.027285,-0.063055,0.02567,0.017813,-0.064658,0.027226,-0.084312,-0.056048,0.036746,0.053113,0.02178,-0.013751,-0.096037,0.078049,-0.012014,-0.014438,0.093358,-0.073724,0.007403,0.016294,-0.104464,0.005831,0.052896,-0.032919,-0.021469,0.036176,0.084719,0.006111,0.016187,-0.120073,-0.073321,0.04736,0.036028,-0.030579,-0.03794,-0.013454,-0.048289,0.049379,-0.020919,-0.056527,0.045662,0.03031,-0.010657,-0.046185,-0.046778,-0.008656,-0.068568,-0.011121,0.014346,0.112681,-0.029479,0.024321,0.017312,0.049339,0.029271,-0.067475,0.072531,0.073623,0.005649,-0.028396,0.068536,-0.032773,-0.011448,0.003244,0.069403,-0.056267,0.077134,0.174007,0.061651,0.020174,0.034298,0.046341,0.040877,0.029848,0.010817,-0.018901,-0.06686,0.024218,0.02913,-0.012626,0.023859,0.004109,-0.036565,-0.094849,0.001975,-0.052197,-0.009854,-0.040661,-0.024862,-0.067907,-0.033258,0.019611,0.103103,0.03824,-0.01026,-0.065711,0.042856,0.053564,0.019269,-0.064697,0.011879,0.102592,-0.058662,-0.005741,-0.010335,-0.023385,0.096908,0.039962,-0.003129,-0.00653,0.047293,-0.051997,0.038017,0.137908,-0.029475,0.046349,0.087795,-0.042626,0.056606,0.028181,0.07703,0.019971,-0.028304,0.034797,-0.054821,0.019828,0.038342,0.084718,-0.068792,-0.101917,0.029731,0.038986,-0.030927,-0.048968,-0.026629,-0.057823,0.032147,0.001524,-0.040724,-0.069761,-0.009975,0.018965,-0.011587,-0.073186,0.071863,0.060013,0.06287,-0.10112,0.065585,-0.041038,0.047906,-0.013698,-0.039987,-0.021258,0.05872,0.108994,-0.068756,-0.017404,0.040461,-0.029714,0.01219,0.035061,-0.034165,-0.122287,0.037456,-0.101009,0.154744,0.104683,-0.077137,0.068626,-0.061416,-0.041621,0.036299,0.031316,-0.012558,-0.028293,0.03019,0.030958,-0.028937,-0.059616,0.04758,-0.009157,-0.118394,0.048564,-0.09648,0.014127,0.051544,-0.013859,-0.046623,0.064599,0.032359,0.131872,0.00949,0.080547,0.015903,0.046955,0.042746,-0.024038,0.0765,-0.030881,0.088495,-0.035,0.014905,-0.027391,-0.043285,0.045578,-0.139174,0.109938,-0.057847,0.010336,0.114048,0.042011,0.032165,0.051062
would,-0.005455,-0.064055,0.106359,0.000271,-0.005658,0.017313,-0.030339,0.014298,0.030399,-0.079747,-0.010444,-0.111916,-0.123488,-0.092609,0.008506,0.032533,-0.042526,0.030591,0.086647,-0.020913,0.026505,0.011897,0.014463,0.001581,0.075615,-0.00222,-0.050389,0.04269,0.058895,0.035402,-0.056091,0.035263,-0.019809,0.013656,0.020015,0.083003,0.018071,0.110522,0.029063,0.044675,0.063503,-0.003521,0.011324,-0.00913,-0.055383,-0.001837,-0.078211,0.038964,-0.070828,-0.003281,0.003999,-0.048653,0.027245,-0.022721,0.005759,-0.060374,0.088741,0.092674,-0.074866,-0.048201,0.032353,0.05976,-0.119284,0.032927,0.070647,-0.028589,0.022165,0.062041,-0.000767,0.034853,0.056722,-0.06957,0.002688,0.003721,0.060384,0.051404,0.122804,-0.072434,0.069114,0.050998,-0.044597,0.002706,-0.050411,0.051536,0.07091,0.003343,0.070056,0.01648,0.037701,-0.016582,0.002612,0.008178,-0.008175,0.000271,0.083266,0.005652,0.066783,-0.026681,-0.014387,0.012915,-0.073827,-0.021844,0.044057,-0.024873,-0.078231,-0.060947,-0.033879,-0.004327,0.080935,0.067042,0.138748,-0.001727,0.017548,0.06424,0.01159,-0.003258,-0.088141,0.060882,-0.031367,0.038041,0.022199,-0.059682,0.06889,0.093285,-0.023557,-0.012233,-0.050526,-0.158525,0.052719,0.111342,-0.011211,-0.008947,-0.072251,-0.054514,-0.025641,0.052651,0.110887,0.01208,0.007691,-0.014262,0.009556,-0.099095,0.146173,-0.023607,-0.020754,-0.08591,0.04915,-0.00056,0.062645,0.049108,-0.043757,-0.008989,0.002947,0.114525,0.008007,0.058287,0.039917,0.042295,0.023556,-0.03305,0.103706,0.03489,0.044558,-0.057935,0.051292,-0.049663,0.048325,-0.009268,-0.105398,-0.075471,-0.01292,-0.073869,0.085952,-0.057943,-0.057772,0.011174,-0.078753,-0.033653,0.031888,-0.044855,0.042334,0.003226,0.090723,0.01346,0.116858,-0.078629,0.071177,0.024576,-0.001646,0.066655,-0.029331,-0.096967,0.116956,-0.010037,-0.00428,-0.105304,0.020429,-0.050472,-0.025156,0.161551,-0.017821,-0.016237,-0.002396,-0.018631,0.067163,0.099771,0.032056,-0.052689,-0.018944,0.037292,-0.010375,-0.005832,0.047825,0.028655,-0.058898,-0.053038,-0.042554,0.040768,-0.005952,0.0424,-0.033564,-0.042957,-0.100894,0.012936,-0.001456,-0.027434,0.017128,-0.144401,-0.101355,-0.076851,-0.082961,0.020867,0.106577,-0.049071,-0.065475,-0.026633,0.056467,-0.07157,0.0749,0.09507,-0.008996,0.093862,-0.041786,-0.052785,-0.051465,0.064359,0.049839,0.024649,-0.029366,-0.021661,-0.030077,0.001683,0.018157,0.053895,-0.010381,-0.030603,-0.049051,0.038848,0.040753,0.037643,-0.077966,0.000624,0.042282,0.080226,-0.041934,0.109378,-0.111713,-0.120089,-0.119338,0.041698,-0.030098,-0.094098,0.063526,-0.026045,0.004075,0.093755,0.058716,0.0279,-0.038921,0.038873,-0.072034,-0.04601,0.00314,-0.030147,0.04745,0.039955,-0.024822,-0.024729,-0.009289,-0.032888,-0.029693,0.083669,-0.089212,0.063672,-0.048096,0.028711,0.032499,0.104135,0.0011,0.024307
made,-0.033224,-0.046773,-0.022644,-0.115277,-0.037984,0.1095,-0.138488,0.038567,0.001758,-0.015338,0.07442,-0.081716,0.022789,-0.057075,0.018099,0.027947,-0.087037,0.137851,0.000423,-0.048441,-0.104904,0.057693,0.029444,-0.037336,-0.030525,0.059529,-0.008946,0.037056,0.086504,0.043556,-0.027045,0.038272,-0.101409,-0.033699,-0.023395,0.040863,0.043754,-0.000742,0.13481,0.070759,-0.042911,0.064379,0.011576,-0.009757,-0.08825,-0.00226,0.085526,-0.006005,-0.056181,-0.004436,0.00474,0.047471,-0.003711,0.063065,0.044869,0.002321,0.025375,-0.091201,0.099668,0.027269,-0.076722,-0.069953,-0.023157,-0.004099,-0.049236,0.021514,-0.012506,0.1027,-0.107501,0.035482,0.057394,0.049843,0.012293,-0.036803,0.068899,-0.02309,0.155254,-0.084129,0.047967,0.010972,-0.126324,-0.098239,-0.000286,0.061198,0.053457,-0.049122,0.012776,0.040286,0.024669,0.012533,-0.056778,0.086809,0.058187,0.07595,-0.010621,0.010441,0.025382,-0.034498,-0.031015,-0.041466,-0.065551,0.019053,0.03598,-0.016829,0.008544,-0.034682,-0.014532,-0.035022,-0.044844,0.022198,0.099951,-0.023478,-0.005563,0.027628,-0.022705,-0.099296,0.066105,-0.007196,-0.019358,0.008736,-0.06802,-0.029284,0.167872,0.026225,0.033172,0.014566,-0.003156,-0.068896,-0.073081,-0.00685,-0.10589,-0.059794,-0.003942,0.008298,0.051865,-0.006493,0.038972,0.037339,0.120433,-0.030149,-0.036601,-0.024278,0.030875,0.027392,0.021491,-0.030092,0.118744,0.008418,-0.000581,0.072964,-0.057194,0.001767,-0.085936,0.08814,-0.047158,0.120549,0.021676,-0.005673,0.078913,-0.030295,-0.034774,-0.012375,-0.091052,-0.073011,0.018553,-0.065356,-0.020026,0.068881,-0.050451,0.090699,0.069411,-0.019339,0.068806,-0.065659,-0.012815,-0.01538,-0.036105,-0.050177,-0.033603,-0.048797,0.002311,-0.099479,0.066448,-0.021734,0.022529,0.008132,0.058741,-0.033111,0.003998,0.077112,0.041217,0.035098,0.070388,0.029927,0.084321,0.002635,-0.115938,0.023617,-0.004269,-0.005444,-0.1242,-0.014725,0.097655,-0.008679,0.009448,0.065082,0.073925,-0.024597,-0.139802,0.061454,-0.026084,-0.018006,0.034578,0.019798,-0.119666,-0.034889,-0.083787,0.091763,0.008274,0.083237,0.041146,0.004931,-0.035038,-0.015278,-0.082961,0.04232,-0.029686,-0.050965,-0.028855,-0.006471,0.039047,0.071359,0.084601,-0.050107,-0.01511,-0.009119,-0.102749,0.114891,0.105383,0.009911,-0.039905,-0.001998,-0.052586,0.008444,0.080923,0.052126,0.042114,1.9e-05,0.039351,-0.058005,0.083722,0.051332,0.046932,-0.055983,0.058071,-0.002843,-0.040551,-0.021564,0.077986,0.12197,-0.090324,-0.092583,0.047599,0.002466,0.015698,0.015091,-0.034806,0.015476,-0.016301,0.058234,0.085047,-0.02811,-0.008603,-0.002635,0.03063,-0.068738,0.005263,0.026287,-0.01026,-0.087014,0.049265,0.083311,0.022102,-0.067858,-0.081088,-0.017814,-0.049139,0.028877,-0.083182,0.053883,0.005144,0.002312,-0.043491,0.091255,-0.065307,-0.060637,-0.029168,0.034441,0.024149,0.003539
well,0.032183,0.058166,0.102063,-0.054714,-0.037364,0.013909,0.025827,0.072022,-0.050159,-0.005879,0.051035,-0.132565,-0.037001,-0.026743,0.023712,0.005936,-0.008384,0.125674,0.030923,0.029452,0.065101,0.078153,0.068213,0.017053,-0.068667,0.048849,0.004131,-0.049005,-0.011843,0.077499,-0.025933,-0.05535,0.071409,-0.035001,-0.001731,0.014616,-0.054782,-0.127385,0.072102,0.031272,0.055332,0.06102,0.117873,-0.107388,0.049049,-0.053108,-0.067772,-0.01753,-0.085637,0.034155,-0.045572,-0.015431,-0.040222,0.029442,0.008157,-0.017296,0.033683,-0.008116,0.063481,-0.007916,-0.048032,0.026655,-0.056147,-0.070249,0.02368,-0.009582,-0.104634,0.08083,0.090945,-0.003321,-0.078819,0.057789,-0.018212,-0.047445,0.040928,0.00711,0.035946,0.003496,-0.004467,-0.030837,-0.076658,0.023644,-0.020706,0.003983,0.054153,0.035653,-0.015255,0.049613,0.073314,-0.069246,-0.060731,0.022003,-0.085922,-0.098455,-0.080821,0.018326,0.040906,-0.016263,0.081155,0.11907,-0.029359,0.031712,-0.115821,0.04717,-0.011684,0.010038,0.024924,0.018932,0.041067,0.013258,-0.049051,0.03992,0.026192,0.016369,-0.044671,-0.074313,0.020595,0.111691,-0.081494,-0.04165,0.026821,-0.024684,0.012373,0.102451,0.122196,0.063861,0.076469,-0.016485,0.061807,-0.156449,0.021441,0.041774,-0.002189,-0.040381,-0.003107,-0.009634,0.037436,-0.048643,0.03608,-0.077186,-0.102194,-0.01048,0.068451,-0.031417,-0.043446,-0.051323,0.048659,-0.056945,-0.019346,0.03373,0.051302,0.021363,-0.017883,0.058003,0.03626,0.023564,0.002028,-0.015778,-0.017544,-0.04567,0.05873,0.106863,-0.117683,0.010158,-0.052375,-0.02425,0.049681,0.036562,0.004885,-0.019112,0.053408,-0.046077,-0.003979,-0.019933,-0.067094,-0.055021,-0.107356,-0.086445,0.021322,0.010226,0.035559,-0.030142,0.012638,0.065336,0.054908,-0.012121,0.061836,0.038534,-0.025653,0.024341,0.004247,0.000839,0.03402,-0.045052,-0.079177,0.008376,-0.037211,-0.077966,-0.045747,-0.0123,-0.077165,0.016971,0.014109,-0.100599,0.036515,0.039101,0.028107,-0.060309,-0.03233,-0.104422,0.027367,-0.076864,0.05207,0.004765,-0.107219,-0.088474,-0.049302,-0.001876,-0.06189,-0.0679,0.046305,-0.03401,-0.019139,-0.096772,-0.078421,-0.078654,-0.045874,-0.084732,0.128582,-0.030293,-0.003795,-0.068629,-0.010824,0.054598,-0.082962,-0.029454,-0.032912,-0.056163,0.014428,0.019758,-0.132387,-0.029596,0.006653,0.013996,-0.086204,0.111211,-0.063908,0.060496,8e-06,-0.041301,0.059193,-0.016333,0.028543,0.090374,0.101146,0.025881,-0.002654,-0.020562,0.0338,0.145629,-0.034041,-0.035053,0.112772,0.029461,-0.020654,-0.021719,0.118121,-0.081194,-0.063639,-0.034805,-0.064024,-0.028775,0.014782,0.00158,0.055542,0.059923,-0.092325,0.10736,0.047628,-0.026459,-0.06262,-0.019773,0.04793,0.053936,0.00448,-0.069596,-0.049581,0.000854,-0.110798,0.069076,0.017727,0.056166,-0.106694,0.046184,-0.091665,-0.088526,0.016668,0.061213,-0.015307,-0.076759
family,-0.000777,-0.065956,-0.06147,-0.028727,0.008924,0.040996,-0.030011,0.027953,-0.073246,-0.057322,-0.025288,-0.046094,0.058281,-0.020018,0.080964,0.062183,-0.096003,0.003195,-0.060591,0.018501,0.007801,-0.018229,-0.075499,0.043033,0.001336,-0.015645,0.134434,-0.004027,-0.037227,0.00859,0.000539,0.024702,0.025791,-0.030236,-0.120883,-0.034166,0.073471,-0.049133,-0.083686,0.006636,0.030832,-0.072985,0.081391,-0.043039,-0.056311,-0.015333,-0.016118,0.020806,-0.06065,0.049786,-0.084281,-0.004266,0.016028,0.055119,0.014442,-0.050285,-0.080015,0.071286,0.018808,0.04065,-0.007236,-0.137937,-0.027656,-0.034735,-0.08093,-0.030365,0.024539,-0.005262,0.062914,-0.009378,0.038058,-0.007263,-0.022441,-0.043866,0.006374,0.05022,0.048526,-0.064505,-0.040002,0.121766,-0.089537,0.039795,0.11438,0.054959,-0.050703,0.0052,-0.043564,0.012739,0.048476,-0.02146,0.086205,-0.035419,-0.037973,-0.014699,0.023978,0.048841,-0.035131,0.012546,-0.028486,-0.004096,0.000668,0.025026,-0.072939,-0.024617,0.000671,-0.084359,-0.01343,0.039082,-0.061453,0.016152,-0.017772,0.026636,0.037905,0.03976,-0.021756,-0.114523,0.008117,0.161396,0.029132,-0.085789,0.033893,0.092332,0.016703,-0.162467,0.055659,0.047573,-0.076651,-0.103489,0.013654,-0.020531,-0.037052,-0.077303,0.071586,-0.021048,-0.01015,0.010176,-0.016891,-0.079376,0.008536,0.046284,0.028586,-0.080446,0.07591,-0.096704,-0.066639,-0.068448,-0.019911,0.028121,-0.068831,-0.058688,0.156917,-0.039373,-0.067299,0.199838,-0.019579,-0.005757,-0.036297,-0.043303,-0.018358,0.017628,0.031613,-0.076812,0.013868,0.022661,-0.024382,-0.068263,0.020662,0.097701,-0.057723,-0.043489,0.022879,-0.0143,0.009679,-0.078084,0.06168,0.042164,-0.027407,0.032236,0.018032,0.120668,0.08813,-0.002952,-0.017193,0.059667,0.014652,0.008744,0.049665,0.039378,0.041482,0.061886,-0.106611,0.043408,-0.071772,-0.047368,0.041238,0.006646,-0.064829,-0.123387,0.010711,0.053872,-0.067597,-0.06905,0.036447,-0.0178,-0.014381,0.055054,0.011927,-0.065106,0.079407,-0.14487,-0.062241,0.023452,0.034521,0.002319,-0.066253,-0.09394,0.007783,0.07466,0.001187,-0.068252,-0.010844,-0.025093,0.039268,-0.09124,0.021714,-0.025557,0.098486,-0.024012,-0.064078,0.059972,-0.061062,0.023741,0.046478,0.022132,-0.009749,-0.014011,-0.060016,-0.041496,-0.024928,0.000728,0.043344,-0.093432,-0.021676,0.05871,-0.131702,-0.017463,0.089805,0.017385,-0.044214,-0.010123,0.022851,0.018777,-0.010589,-0.072938,0.002333,0.010403,-0.130734,-0.03973,0.030953,0.012586,0.095183,-0.015215,-0.051752,0.072363,0.095757,-0.042785,-0.007993,0.003584,-0.042299,-0.070891,-0.034168,-0.087211,0.051549,0.014267,0.02658,0.0572,-0.005686,0.051806,0.019527,0.018922,0.036267,0.036677,-0.069189,0.018253,0.026849,-0.013977,0.017285,-0.019824,0.058688,-0.086936,0.049184,0.032144,-0.003159,0.07435,-0.151732,-0.143242,0.043877,-0.092572,0.086459,-0.042976
use,-0.071117,-0.040986,0.062101,-0.003033,-0.091588,0.054129,-0.00524,-0.007233,0.03745,-0.071631,0.009838,-0.095109,0.108617,-0.026512,0.070059,0.030969,-0.109131,0.157159,-0.043398,0.07774,0.029103,-0.003174,0.012597,-0.037226,0.042505,-0.017051,-0.030113,0.008963,0.036962,-0.02235,0.048427,0.056836,-0.038663,-0.039583,-0.089912,0.047944,0.045922,-0.085884,-0.053682,0.017275,0.001957,0.065693,-0.033316,-0.080054,-0.034609,-0.065374,-0.016694,-0.017415,-0.014526,0.080146,0.032262,-0.046485,-0.032185,0.024377,-0.010541,0.091994,0.025567,-0.020198,0.012698,0.082539,-0.110507,0.011166,-0.146823,-0.066414,-0.008077,-0.061837,0.026189,0.102207,0.139647,0.027427,-0.05754,0.041582,0.051161,-0.086074,0.051081,0.008003,0.064072,-0.15311,0.019379,0.078478,-0.043975,-0.033941,-0.104312,0.022008,0.070987,-0.031955,0.009628,0.022489,0.095091,-0.00288,0.091462,0.035513,-0.083131,-0.039721,-0.049104,0.031303,0.062683,-0.004883,0.019241,0.09361,-0.020859,0.052352,-0.007015,-0.026289,-0.108412,0.054883,0.040564,0.007362,-0.027407,0.045122,0.06805,-0.01128,-0.043626,0.075586,0.041468,-0.094845,-0.116185,0.017825,0.034271,0.049687,-0.029535,0.107449,0.122489,0.055192,0.04411,0.030723,-0.01923,0.082898,0.118318,0.065667,-0.011661,-0.014001,-0.084332,0.003545,0.010281,0.050526,-0.011794,-0.003075,0.027032,-0.046186,-0.014436,-0.087051,0.005706,-0.006957,0.063139,-0.111199,-0.023491,-0.018386,-0.016138,0.106403,0.015849,0.098191,0.047415,0.079674,0.021439,0.143918,-0.032051,0.005854,0.038271,-0.021619,0.010057,0.000774,-0.093525,-0.000843,-0.054548,0.055147,0.096477,-0.07243,-0.023355,0.046634,-0.045987,0.066388,0.031765,0.005377,-0.026434,0.007326,-0.015326,-0.004958,0.003996,-0.055088,-0.009746,0.014321,0.126561,0.00201,-0.054873,0.059611,0.085605,-0.023585,-0.043015,0.020427,-0.008236,-0.017562,0.031071,-0.088532,-0.025232,0.00409,0.04457,-0.075852,0.113961,-0.015907,-0.001272,-0.011103,0.108932,0.030773,-0.044307,0.004922,-0.080299,0.002193,-0.027587,0.040317,-0.053487,-0.03679,-0.026101,-0.098607,-0.089,0.018229,-0.092449,0.05366,0.017701,-0.132167,-0.085628,-0.031115,0.058122,0.03418,0.032088,-0.022995,-0.006543,-0.01357,0.016116,-0.063079,-0.00544,-0.039811,0.035196,-0.011115,-0.047034,-0.076798,0.022736,-0.139661,-0.011861,0.028119,-0.137461,0.04995,-0.005946,-0.041958,-0.085819,-0.053911,0.058287,0.03649,-0.045992,-0.07399,-0.073722,-0.030594,-0.011639,0.024745,0.072065,0.098182,0.051169,0.016157,0.102727,-0.05882,0.071519,-0.039594,-0.008901,-0.015329,0.008365,-0.151538,-0.006493,-0.085067,-0.000159,-0.048052,0.000429,0.008517,-0.032403,-0.01567,-0.026936,-0.02828,0.005461,0.071977,0.039047,-0.002264,-0.050496,0.011498,0.028296,0.002461,0.056334,0.034798,0.020253,-0.034791,-0.096015,-0.030269,-0.000305,-0.014749,-0.071755,-0.093387,-0.027293,-0.000647,0.033387,0.027565,0.057231,0.036164
took,0.013337,0.143587,-0.004714,-0.104112,-0.014412,-0.010804,-0.086378,0.062431,-0.003012,0.023518,0.01188,-0.100588,-0.018941,-0.102147,0.007123,0.021761,-0.012031,0.111038,0.097159,-0.039974,0.012278,0.078742,0.030272,-0.016779,-0.087214,0.086049,-0.025702,0.047684,0.059474,-0.042199,0.011517,0.021633,-0.016113,0.000723,0.073131,-0.003333,0.011281,0.001764,-0.011906,0.047857,-0.012332,0.004999,0.007198,-0.048856,-0.020969,-0.055736,0.014856,0.014459,0.013673,0.08835,-0.007165,-0.009097,0.117025,-0.053809,0.046317,0.03775,0.085685,0.014373,0.089043,0.120461,-0.071973,-0.049219,-0.102872,0.010431,-0.093939,0.043481,0.039671,0.156783,0.016922,0.036045,-0.017346,-0.059232,-0.101936,-0.031971,0.072802,0.08635,0.065199,-0.045425,0.012565,0.053397,-0.056198,-0.091024,-0.013217,-0.020848,0.122793,-0.026231,-0.068541,-0.001602,-0.08046,-0.049406,0.005728,0.003737,0.053018,0.022085,0.09542,0.031594,0.027291,0.00641,-0.025771,-0.034826,-0.004416,0.003819,-0.012676,-0.044013,0.113393,-0.033102,-0.064256,-0.040575,-0.096833,0.090694,-0.023964,0.090654,0.126002,-0.018386,-0.021761,-0.012173,-0.018003,-0.004059,0.081203,-0.033675,0.098849,-0.08443,0.0263,0.039259,-0.043228,-0.062834,-0.082856,0.013461,-0.021843,0.07875,-0.058802,-0.052885,-0.149497,0.0009,-0.017577,0.015029,0.010387,-0.060382,-0.071429,0.009841,-0.018592,0.024431,0.036087,0.027349,-0.093189,-0.063648,0.049116,0.02419,0.035082,-0.068432,0.02907,0.004373,-0.027357,-0.039952,-0.099167,-0.009136,0.05077,-0.018473,-0.059569,-0.051092,0.112363,-0.102332,0.01396,-0.021958,-0.000941,-0.043033,-0.03328,-0.043635,-0.010341,0.111232,0.048364,-0.011653,0.038668,-0.033937,0.029832,-0.06462,-0.068021,-0.010439,0.00661,-0.010478,-0.010638,0.044196,0.082428,0.089211,-0.108045,-0.017331,0.065688,0.007033,-0.032323,0.113198,-0.024421,0.00096,0.064572,0.021348,-0.031522,-0.026765,-0.01152,-0.092125,0.023907,0.076193,-0.006644,-0.083575,0.053705,-0.003315,0.024082,0.108495,0.114502,-0.043867,0.036803,-0.023894,-0.096266,-0.093423,0.021984,0.026041,-0.079278,-0.025362,-0.076026,-0.005978,-0.018068,-0.020599,-0.023386,0.064141,-0.041225,-0.04997,0.034286,-0.020825,-0.046735,-0.077439,-0.07772,0.024388,0.003934,0.114834,0.012332,-0.07734,-0.041302,-0.063513,-0.011497,-0.019485,0.049597,-0.039115,-0.080686,0.059375,0.010439,-0.073303,0.021784,0.002115,-0.111995,0.111877,0.060313,0.093161,0.006406,-0.02001,-0.00042,0.070706,-0.060014,-0.002976,-0.051038,-0.001105,-0.029814,-0.025496,-0.116999,0.110023,0.029491,0.014448,-0.019071,-0.033586,-0.017379,0.038243,-0.012178,0.059807,-0.026059,0.12081,0.08164,-0.029304,0.006747,0.024145,-0.031155,-0.002529,-0.017557,-0.058797,-0.015531,-0.038239,-0.01625,-0.004433,-0.039137,-0.042052,0.07377,0.06199,0.062073,0.000104,-0.048025,-0.039964,-0.094527,0.053255,-0.040621,-0.122675,0.052542,0.154121,-0.00475,-0.01911
could,0.083434,-0.042949,0.168257,-0.014778,-0.062952,0.018137,-0.028474,0.038696,0.066896,-0.119197,0.016727,-0.099666,-0.087405,-0.090753,0.025226,-0.018671,-0.04833,-0.003025,0.051287,0.052847,0.031476,-0.047594,0.051614,-0.014278,0.048044,-0.031208,-0.042149,0.017012,0.054643,0.016204,-0.068716,0.040784,-0.063075,-0.009002,-0.052846,0.060342,-0.024676,0.037773,0.07467,0.055001,0.009305,0.059827,0.103667,0.079263,-0.026654,-0.070145,-0.046423,0.018337,-0.047605,0.095946,0.002253,-0.054749,0.050807,-0.077762,0.018736,-0.062806,0.061501,0.008351,-0.086838,-0.014085,3.5e-05,0.003074,-0.089875,-0.011559,0.059999,-0.034376,0.036567,0.080328,-0.003643,0.061236,-0.031462,-0.015193,0.064355,0.066726,0.017657,0.017319,0.079854,-0.090992,0.040392,0.039336,-0.087986,-0.012013,-0.052017,0.073219,0.028447,0.071144,0.041869,-0.016688,0.002162,-0.002147,0.017024,0.036731,-0.030586,0.037093,0.037808,0.029116,0.018402,-0.050984,-0.065411,0.081171,-0.020725,-0.059312,0.053757,-0.036349,-0.144093,0.062699,-0.066555,0.052575,0.066016,0.003616,0.095314,-0.004648,0.018924,0.071817,0.032497,-0.074535,-0.071378,0.114121,-0.033279,0.050835,-0.004174,-0.038986,0.0564,0.067816,-0.016298,0.018035,-0.005603,-0.025346,0.015716,0.09478,0.0408,-0.017004,-0.075921,0.047601,-0.04767,0.082871,0.022855,-0.026214,0.04484,0.029668,-0.03726,-0.090967,0.071168,-0.070349,0.037012,-0.037887,0.021771,0.009544,0.004992,-0.023971,-0.036875,0.001078,-0.013032,0.049068,-0.041665,0.040474,-0.013112,-0.030545,-0.006272,0.018491,0.089009,0.025965,-0.036615,0.021663,0.049649,-0.095297,-0.015931,-0.01474,-0.109218,-0.089206,0.017041,-0.04133,0.094353,-0.045028,0.01815,-0.025598,-0.064381,-0.069373,-0.096829,4.5e-05,0.049286,-0.025623,0.065539,-0.026798,0.094392,-0.051182,0.123427,0.001326,-0.017701,0.036593,-0.127589,-0.083186,0.091155,-0.100377,0.050452,-0.116765,0.051707,-0.115482,-0.071759,0.118658,0.018905,0.010142,0.030299,-0.007377,0.059638,0.08977,0.00232,-0.02487,0.029364,-0.006257,-0.076636,-0.095005,0.04278,0.004935,-0.05166,-0.079378,-0.019401,0.080618,0.005963,0.005572,0.020461,-0.087818,-0.027557,0.033025,0.065741,-0.114333,0.020056,-0.11098,-0.068877,-0.063345,-0.010387,0.035147,0.101244,-0.058148,0.007456,-0.065313,0.113488,-0.08886,0.007657,0.029466,-0.002434,0.075073,0.01607,-0.079048,-0.096285,0.0906,0.094591,-0.014368,-0.12737,-0.007703,-0.052365,-0.071237,-0.009944,0.038012,-0.002554,0.009156,-0.008366,0.05693,-0.020039,-0.009615,-0.078536,-0.0637,0.074239,-0.008781,0.054578,0.076497,-0.074374,-0.115999,-0.098053,-0.018637,-0.019757,-0.030402,0.052556,0.01579,0.014368,0.069532,0.071085,0.04057,0.007731,0.029069,-0.065857,-0.013015,-0.055816,-0.018555,0.024033,0.019571,-0.029157,-0.049683,-0.014933,-0.021039,-0.039744,0.077284,-0.115531,0.057984,-0.070124,0.012466,0.061496,-0.016107,0.072413,0.035521
home,0.088803,0.030391,-0.024663,-0.040833,0.016053,0.009783,0.106566,0.073587,0.029564,-0.023919,0.06199,0.04639,-0.036004,-0.014462,0.034873,0.025691,-0.037707,0.064464,0.049105,-0.009251,-0.022456,0.011162,-0.086515,0.028317,0.012509,-0.014538,-0.013203,0.100299,-0.014395,-0.021663,0.107786,0.074415,0.085308,-0.048277,0.004784,0.090424,0.062006,0.027672,0.003602,-0.051019,0.108152,-0.004309,0.017292,0.029922,-0.051561,0.003485,0.001265,-0.084269,-0.027782,-0.007956,0.106715,0.042969,-0.022258,-0.075136,0.021125,-0.062978,0.092198,0.018602,0.138489,-0.004177,-0.055391,-0.09243,0.011237,-0.042159,0.040331,0.009204,-0.062997,0.127739,0.020217,0.049976,0.006039,0.002465,-0.050915,-0.035994,0.01878,0.03024,0.133526,-0.136918,0.022942,0.004163,-0.068929,0.025047,-0.055438,0.084999,0.068439,0.052952,-0.048219,0.079058,0.009234,0.027813,-0.115001,0.036081,-0.020089,-0.022495,-0.020149,0.024803,0.047821,-0.07806,-0.011199,-0.012668,-0.014285,-0.017764,0.060096,-0.007556,0.04681,0.049293,-0.041772,-0.034112,-0.028417,-0.032747,-0.119343,0.011506,-0.038542,-0.019879,0.105118,-0.022801,-0.017355,0.031153,-0.04197,-0.074311,0.022415,0.168984,0.013777,-0.030039,0.013653,-0.031278,0.013636,-0.102844,-0.023274,-0.068502,-0.037402,0.030084,0.007232,-0.001868,0.059033,0.049654,0.034175,0.074772,0.079031,-0.043885,0.088127,-0.047622,0.026057,-0.004958,0.034659,0.018233,-0.115655,-0.080546,-0.001702,-0.074564,0.047477,-0.040598,-0.04481,-0.006431,-0.030661,0.0107,-0.001534,-0.052062,-0.105211,-0.122155,0.041162,-0.022468,0.057767,0.073066,-0.107392,-0.017697,-0.005904,0.018209,-0.027108,-0.055199,0.099243,-0.055112,0.049684,0.033371,0.033406,0.101238,-0.03525,-0.120569,0.081164,0.023864,-0.01376,0.00279,0.096054,0.007964,-0.065055,0.049419,0.040073,-0.032704,0.036367,0.030666,-0.056518,0.007366,0.091945,-0.093122,-0.072157,0.001701,-0.059769,-0.037147,-0.064918,0.009708,0.015238,-0.011045,0.098355,-0.087135,-0.003398,0.070064,0.104026,-0.003226,0.030308,-0.003951,0.045934,0.007506,0.01985,0.092812,0.015582,-0.103133,-0.038927,0.049872,-0.052169,-0.021055,0.047989,0.037103,0.055917,-0.066561,0.004187,0.04747,-0.011593,-0.041321,-0.05406,-0.001983,0.004673,0.053251,0.109062,0.051748,0.091876,0.004974,-0.059025,-0.004638,-0.040207,0.029599,0.028321,-0.004592,-0.075161,-0.055748,-0.120272,0.106954,0.043899,0.088028,-0.055085,0.038917,0.001467,-0.041662,-0.032997,0.083999,0.02319,-0.104619,-0.025242,-0.151485,-0.07015,0.037115,0.033365,0.038944,-7.1e-05,-0.009581,0.058634,0.013101,0.039045,-0.053541,-0.077263,-0.065344,-0.069997,-0.062601,-0.073069,0.048547,0.024127,-0.017421,0.088415,0.074923,-0.056848,0.004332,-0.022032,0.048159,0.035207,0.020833,0.042482,0.020301,0.034633,0.044885,0.008449,0.013118,0.046088,-0.00246,0.010866,0.082846,-0.057719,-0.061054,0.169813,-0.02759,0.099186,0.117141
served,-0.093065,0.086662,0.090445,-0.176977,-0.033627,0.052034,-0.042846,0.07892,-0.03842,-0.027169,-0.007467,-0.063942,-0.003647,-0.009482,0.041837,-0.010178,0.000168,0.058175,-0.010367,0.040356,0.112502,0.099541,0.031299,0.058537,-0.049697,-0.012504,-0.013057,0.049638,0.027068,-0.105478,0.033629,0.022479,0.016479,-0.008072,-0.034845,-0.098452,0.077655,-0.05307,-0.018232,0.061408,-0.00561,0.024261,-0.04823,-0.131195,-0.035244,0.012792,-0.051569,0.098936,-0.017098,0.06239,0.015559,0.03174,0.115141,0.001258,-0.012542,-0.045377,0.03415,0.007228,0.122378,0.029035,-0.055623,-0.02432,-0.011645,0.105125,-0.019986,0.028142,-0.014723,0.180763,0.09962,-0.061601,0.018639,0.065513,-0.043921,-0.125983,0.107751,0.056098,0.025018,-0.100102,0.107955,-0.009208,-0.054406,0.002962,0.026248,0.013761,0.08798,-0.00133,0.052051,-0.038829,-0.003247,-0.085319,-0.039037,-0.000954,0.033841,0.031606,-0.048582,-0.063358,-0.05879,0.03992,0.048066,0.044345,0.03307,-0.001852,-0.023968,-0.09536,0.07727,-0.033604,0.054568,-0.021071,-0.076703,0.017776,-0.035944,0.07708,-0.011408,-0.024972,-0.04822,-0.039004,0.053051,-0.057707,-0.06131,0.071958,-0.094151,-0.011399,0.111679,0.082697,-0.033455,-0.038143,-0.052401,-0.003642,-0.063676,0.074312,0.02823,-0.055078,-0.011786,-0.051789,-0.059249,0.092027,0.02133,-0.005583,0.024332,-0.020337,0.045986,-0.06862,-0.075074,0.092102,0.001765,0.05234,0.027767,0.061838,0.059372,0.021591,-0.059454,0.0401,-0.039956,0.174936,-0.005846,-0.0641,0.060159,0.062285,-0.039814,0.058024,-0.025327,0.026283,-0.067106,0.047302,-0.00438,-0.017641,-0.045635,0.041776,-0.031021,0.004659,0.0575,0.105025,0.074511,-0.049848,-0.050237,-0.007178,0.056178,0.036635,-0.04681,-0.076952,0.001009,-0.037702,-0.001474,-0.010219,-0.068053,0.085184,0.03055,-0.055244,0.028136,0.050157,0.026251,0.02636,0.021022,0.042006,-0.00731,-0.047409,-0.015048,-0.005921,0.03223,-0.011636,0.071836,0.077111,-0.021646,-0.023533,0.030204,0.029935,-0.012505,0.024432,-0.02314,-0.022663,-0.104553,-0.007436,0.034355,0.043226,-0.083517,-0.099061,0.016634,0.099458,-0.062854,-0.043986,-0.021148,0.107655,-0.018369,0.046844,-0.031634,-0.001628,0.009268,-0.024713,-0.016022,0.040061,-0.054745,-0.031777,-0.059133,0.018371,0.043129,-0.003497,-0.045733,-0.038732,-0.031415,-0.049027,-0.105218,-0.039983,-0.028873,-0.00074,0.001562,-0.067057,-0.00055,0.044292,-0.010489,-0.088447,0.012762,0.006393,-0.00166,0.091316,-0.046938,0.0179,-0.033688,-0.079807,-0.030405,0.110897,-0.094596,0.064628,-0.008764,0.066695,-0.033597,-0.048324,0.083183,-0.000663,-0.046181,0.017356,0.041862,0.019339,-0.003101,0.08385,0.075296,-0.029463,-0.039008,-0.067603,-0.003352,0.020716,-0.061318,-0.024128,-0.052041,-0.044357,-0.137071,0.054481,0.083293,0.083423,-0.098705,-0.097881,-0.060471,-0.033238,-0.05661,0.085139,-0.087895,0.001647,0.122847,0.070504,-0.015298,-0.112044
large,0.169161,0.008888,0.074935,-0.008207,0.006143,0.091566,0.002458,0.036,0.098672,-0.055981,-0.037512,-0.077355,0.047435,-0.018105,0.056811,-0.069017,-0.070649,0.10628,0.099452,0.08285,-0.018108,0.020949,0.103564,0.007639,-0.015564,0.073652,0.057636,-0.010618,0.035263,0.060036,-0.015494,0.059385,-0.044269,0.008625,-0.047157,0.058742,-0.098569,-0.02735,-0.008369,-0.0325,0.079767,-0.123842,0.04631,-0.085229,-0.021295,-0.079265,-0.007149,-0.010745,-0.09959,-0.005219,-0.057965,0.007009,0.106691,0.080288,-0.122642,0.06558,-0.004958,0.080768,-0.034301,0.120784,0.044561,0.114812,-0.064513,-0.082696,-0.071322,-0.036778,0.000541,0.008244,0.154517,-0.010563,-0.064267,0.082971,-0.118112,-0.069999,0.044476,0.017853,0.111014,-0.04216,0.086107,0.006901,-0.002181,0.001888,-0.005381,0.122457,0.011626,-0.00097,-0.027083,0.03357,0.002585,-0.037986,-0.044464,0.071769,-0.013284,0.002285,0.05049,-0.016027,0.018319,0.0877,-0.043868,0.031662,-0.015349,0.000279,-0.049005,-0.032403,-0.045727,0.057568,0.043702,0.045677,-0.006503,-0.04884,0.028435,0.006452,-0.050501,-0.024234,-0.005897,-0.072418,0.067727,0.015915,-0.100796,-0.02862,0.003537,0.148385,0.061982,-0.022375,-0.019965,-0.063446,0.093265,0.039932,0.021679,-0.074505,0.037132,0.001493,-0.015697,0.036183,0.053204,0.075165,0.015732,-0.0459,0.114474,-0.068509,-0.032779,0.006696,-0.024861,-0.03804,-0.014804,-0.000172,0.064752,-0.004036,-0.013613,0.017905,0.007108,0.049381,-0.005598,0.044665,-0.011351,-0.023428,0.001004,-0.017742,-0.015024,0.059333,0.087199,0.011436,-0.009881,0.015772,0.013421,0.088501,0.022013,0.022701,-0.0056,0.048032,0.141784,-0.012014,-0.005144,-0.0116,0.02486,-0.006415,-0.043332,-0.090563,-0.00162,0.070944,-0.01397,-0.039582,-0.024741,-0.060442,-0.039046,0.056432,0.060365,0.015497,-0.038112,0.089125,0.030535,0.000697,-0.105948,0.02781,0.026328,-0.054819,0.014602,-0.084261,0.030491,0.052942,0.013156,-0.0476,0.169474,-0.062233,-0.023824,0.042176,-0.065001,0.007316,-0.003829,-0.090834,0.023553,0.059258,-0.014222,0.014799,0.034106,-0.055859,-0.100423,0.039241,-0.084704,0.044017,-0.037693,-0.037446,0.057218,-0.119446,-0.007624,-0.027583,-0.009708,0.036272,-0.02032,-0.084268,-0.007273,0.020216,0.127992,0.022883,0.035867,-0.017987,-0.007786,-0.078858,-0.046822,0.015201,-0.086192,0.055846,-0.07627,0.010669,-0.089135,-0.010659,0.007459,0.033524,-0.048872,0.037108,-0.040449,-0.006089,0.020851,-0.01606,-0.023098,-0.053992,-0.026645,0.041131,0.045793,0.069646,0.064651,-0.093174,0.040576,0.02747,0.049988,-0.068929,-0.07541,-0.022819,-0.018915,-0.071751,-0.034061,-0.047888,0.095177,0.065149,0.034128,0.022243,-0.030925,0.020367,0.029093,-0.040806,0.024015,-0.09305,0.000358,0.07328,-0.004451,-0.019599,0.010051,0.038183,-0.010133,0.097864,-0.057717,-0.010598,-0.177493,0.016013,-0.17113,-0.061662,0.007514,-0.048972,0.029607,0.049551
like,0.050586,0.000795,0.080691,-0.051599,-0.020346,-0.008002,0.047275,0.032043,0.004991,0.00186,0.098667,-0.1104,0.001602,0.036155,0.009352,0.059546,-0.071971,0.081136,0.024483,0.06966,-0.048678,0.024574,0.151169,0.033916,0.045707,-0.037526,0.021906,-0.023352,-0.025833,-0.036033,-0.048655,-0.021618,0.088347,0.012538,-0.066003,0.099255,-0.068147,-0.087882,0.094409,0.097657,0.038805,0.071773,0.10801,-0.00666,0.056576,-0.011205,-0.024854,-0.012637,-0.035305,0.082977,-0.095612,-0.034414,0.079696,-0.04837,-0.017848,-0.0679,0.050136,0.004583,-0.025202,0.026774,0.03392,-0.033454,-0.082834,-0.093302,-0.079856,0.041168,-0.107515,0.073666,0.043323,0.104403,-0.091717,0.025547,0.047902,0.005562,0.019523,0.011536,0.031735,-0.031595,-0.095369,0.120044,-0.108663,0.053774,0.038042,0.046915,0.105523,0.103266,-0.02815,0.061941,0.115848,-0.087382,-0.065958,0.022647,-0.036145,-0.068351,-0.022867,-0.00446,-0.022605,-0.054782,-0.005689,0.112002,-0.173528,0.000577,0.01972,-0.017917,-0.021504,-0.020194,-0.102962,0.059156,0.061194,0.041204,0.046346,0.041549,0.000189,0.086594,0.034974,-0.001038,-0.033704,-0.014844,-0.041272,-0.070179,0.001669,-0.025934,0.004247,0.009133,0.082417,-0.02837,0.035111,-0.011537,0.030244,-0.09359,-0.028316,0.013084,-0.048771,-0.053945,-0.076915,0.061641,0.013685,-0.005147,0.009401,-0.073117,-0.106248,-0.043895,0.085289,-0.008757,0.080629,-0.0784,0.028763,0.001337,-0.053305,-0.017974,0.036123,0.01808,-0.041505,0.094607,-0.016178,0.088871,-0.045854,0.011036,0.012327,-0.063029,0.114872,0.027078,0.01623,0.056693,-0.10102,0.037565,0.046294,0.047696,-0.112588,0.010151,0.079213,0.064368,0.019811,-0.092625,-0.023805,0.002548,-0.031418,-0.082284,-0.025369,-0.031527,-0.047784,0.008032,-0.066502,0.055134,-0.009595,-0.033228,0.080968,0.02993,-0.06681,0.012026,-0.054029,0.002808,-0.01153,-0.0917,-0.015169,-0.025221,0.032915,-0.094027,-0.036539,-0.036771,-0.055676,0.016927,0.03898,-0.037372,-0.008593,0.069168,-0.050697,-0.027185,-0.053012,-0.049799,0.052144,0.050441,0.052003,-0.052724,-0.083311,-0.047176,-0.026991,-0.01518,0.025026,-0.127273,0.047538,-0.003038,0.0358,0.0427,-0.083797,-0.078269,0.038466,-0.080344,0.062785,-0.086512,-0.048908,-0.053043,0.106464,0.024476,-0.053314,0.0538,-0.037525,0.0717,0.017825,-0.029995,-0.11613,0.063313,-0.021821,-0.023576,0.018283,0.105497,0.009412,-0.038124,0.023241,0.050013,-0.044645,0.035786,-0.017607,0.091718,0.088242,0.045324,0.063542,-0.055953,0.10086,-0.008347,-0.017697,0.018515,0.078763,0.040543,0.041505,0.049144,0.021931,-0.026862,-0.066782,-0.059096,0.016138,-0.004896,-0.053398,0.006506,-0.016802,0.116402,0.013742,-0.044003,0.087707,0.028851,-0.037185,-0.033625,-0.007457,0.060319,0.064868,-0.05717,-0.045104,0.057027,-0.016427,0.081771,0.102442,0.016623,-0.004314,0.033954,-0.111147,-0.063386,0.015914,-0.036928,-0.023393,-0.013073
day,-0.033773,-0.001666,-0.081756,-0.025016,0.01156,0.124542,-0.04563,0.090461,-0.033698,-0.033034,0.10163,-0.047483,-0.032987,-0.085847,0.002107,0.11069,-0.02655,0.016654,0.098668,-0.100226,-0.07483,0.004494,0.070435,0.105368,-0.015784,0.019607,-0.18552,-0.005552,0.02937,0.027507,0.037567,0.003389,-0.088477,0.009536,-0.002895,0.044165,0.029241,0.030072,0.070972,0.109117,-0.009263,-0.083589,0.113769,-0.057101,-0.014677,0.013423,-0.007776,-0.026544,0.01273,-0.049347,0.071025,-0.016478,-0.019881,-0.059859,-0.034833,0.026654,0.034294,-0.00779,0.002925,-0.022719,-0.073199,0.009876,-0.054328,-0.033731,-0.048252,0.026368,0.024969,0.018206,0.001317,0.083739,0.029082,-0.060942,-0.000635,-0.04607,0.03234,0.088313,-0.036882,-0.121256,-0.004037,0.047554,-0.174566,-0.006594,0.025668,-0.000837,0.121495,0.049558,0.053528,-0.023173,0.007367,-0.026243,-0.026173,-0.0447,0.039664,-0.064966,-0.054217,0.084367,0.11711,0.047284,0.010213,0.125879,-0.03704,-0.029017,0.011335,-0.059225,0.016191,0.045022,-0.063812,-0.011052,-0.031214,0.010844,-0.02811,0.013754,-0.01341,0.002262,0.073983,-0.033909,0.070365,0.057209,0.041259,-0.031355,-0.035106,0.083945,-0.006933,0.015972,-0.0454,0.016802,-0.024374,-0.036795,-0.088377,-0.060373,0.023381,0.07924,-0.061876,0.023137,-0.006079,0.010868,-0.037776,-0.045324,0.076753,-0.003517,0.00789,-0.024724,0.066982,0.071097,0.089357,-0.01408,0.012713,0.013171,0.004052,0.020253,0.038426,-0.07354,-0.015454,-0.021085,-0.031922,0.041328,-0.004178,-0.042493,-0.11334,-0.022319,0.046866,0.017607,0.008983,-0.100747,-0.015388,-0.005186,0.063048,-0.031403,-0.043361,-0.046974,0.060322,0.006167,0.026771,-0.068487,-0.065064,-0.063224,-0.029335,0.07507,0.098607,-0.036262,-0.046102,-0.019481,-0.089481,-0.096764,0.112454,-0.109716,0.069884,0.021928,0.01357,-0.060873,0.062006,0.046419,0.001282,-0.025069,-0.096672,-0.019464,-0.078174,0.004174,0.026333,0.138833,0.050295,-0.060469,0.044696,-0.105471,0.012136,-0.004898,0.053529,-0.056511,-0.017395,-0.012146,0.037393,0.002952,0.092331,0.026677,-0.102286,-0.095881,-0.010655,-0.004808,-0.098138,-0.080192,0.057312,-0.076684,0.050147,0.07692,0.020685,-0.093251,0.014416,-0.017068,-0.138484,-0.00392,-0.093005,-0.029759,0.0082,-0.023686,0.016385,-0.02781,-0.044222,0.006956,-0.054156,0.032566,0.087126,0.048238,-0.063254,-0.068604,-0.023805,-0.034496,-0.027976,0.043186,-0.007621,0.020437,-0.032627,-0.061442,0.05013,0.031937,-0.073148,0.043697,-0.10101,-0.029765,-0.01822,-0.003063,-0.093352,0.079083,0.040426,0.012634,-0.024094,-0.081035,-0.057967,-0.068405,-0.040389,0.055042,-0.077289,-0.133226,-0.009247,-0.084399,0.024368,-0.008337,-0.059535,0.042388,0.047807,0.071509,0.006357,0.056495,-0.045553,-0.033413,0.037897,-0.044149,0.046219,0.036936,0.03495,-0.01788,-0.01852,0.003415,-0.204312,-0.043171,-0.003088,-0.024973,0.064307,0.058714,0.111231,0.039846
final,0.019523,0.027246,0.081756,0.064659,-0.055567,0.069412,-0.105162,0.068028,-0.063321,-0.029183,0.092137,0.094365,-0.01247,-0.112499,0.001176,0.069077,-0.043319,0.00391,0.03069,-0.030324,0.005039,0.003566,0.03613,0.013579,-0.060585,0.162885,0.041096,-0.073292,0.0466,0.050123,0.014357,0.011943,0.003003,0.020166,0.098307,0.128016,0.11989,-0.029025,0.056259,0.049359,-0.033195,-0.057774,0.060818,-0.029474,-0.042443,-0.035126,0.019578,0.007709,-0.063681,-0.008901,0.012617,-0.013938,-0.053748,-0.040513,0.051294,-0.035314,0.033438,-0.022577,-0.01079,0.017608,0.047748,0.014333,-0.067358,-0.034917,-0.027807,-0.053137,-0.046065,0.125511,-0.05924,0.061577,-0.049274,-0.018625,0.028445,-0.049568,0.017986,-0.079932,0.027149,-0.049816,0.092742,0.100079,-0.038689,0.022462,-0.05294,0.139306,-0.001376,0.025336,-0.048523,-0.143305,0.010752,-0.042313,-0.055765,0.088343,0.014269,0.008362,0.044656,0.033576,-0.037543,-0.017452,0.037224,0.113431,0.040643,-0.046806,0.032363,-0.038557,0.099725,-0.023478,-0.044063,-8.9e-05,-0.012485,0.042753,0.103759,-0.068697,0.048518,-0.000897,0.039872,-0.063549,-0.038921,0.056965,-0.050161,-0.028536,0.038163,0.024977,0.125038,-0.059384,-0.001317,-0.057668,0.013858,0.001576,-0.004814,0.108443,-0.086003,0.01873,-0.044405,-0.018204,-0.03495,0.0275,0.057833,0.028281,-0.014711,0.010677,0.078995,0.058769,-0.076911,0.082792,0.06476,-0.077265,-0.053756,0.007516,0.07686,-0.015377,0.054004,0.000833,-0.030814,-0.015332,0.029596,-0.14266,0.142361,-0.005078,-0.11878,-0.029687,-0.056776,-0.014082,0.053185,-0.046721,0.056716,-0.017746,-0.13302,-0.000654,-0.009945,-0.044585,-0.00014,0.002646,-0.018705,0.015545,-0.003499,-0.001598,0.038693,0.004731,-0.001573,0.034988,-0.010427,0.023798,0.03465,0.073757,-0.11729,-0.138784,0.06299,0.079184,-0.018025,0.014028,-0.019949,-0.01905,0.07906,0.023752,-0.083589,0.070795,-0.006754,-0.096922,0.066456,0.076539,-0.041456,-0.035933,-0.001339,0.008378,0.001516,0.007632,-0.007987,0.108871,-0.062868,0.116422,0.08021,-0.03012,0.002495,0.02128,-0.101308,-0.013909,-0.031122,0.11756,0.076197,0.03167,-0.063164,-0.107458,-0.002813,0.005228,-0.10237,-0.017953,0.007467,-0.030991,-0.030803,-0.036984,0.042663,0.064394,0.050379,0.003489,0.075726,0.020571,-0.038089,-0.033746,0.067103,0.080328,0.041449,0.036252,-0.059043,-0.072873,0.017656,0.042618,-0.045738,0.037934,0.033486,-0.002531,0.004001,-0.043304,0.051588,0.031785,-0.085893,0.096332,-0.03571,0.022017,0.066685,0.056712,-0.034245,0.057057,0.038306,0.122901,-0.035912,-0.020638,0.042606,0.044894,-0.017026,0.077546,-0.12659,-0.013059,0.065989,-0.104025,0.032807,-0.016026,-0.101605,0.116371,-0.078788,-0.006229,0.071198,0.033714,-0.001723,-0.062449,0.02707,0.025804,0.055239,-0.033111,-0.0051,-0.106721,-0.062853,-0.038225,0.012128,0.000685,-0.057601,-0.021309,-0.020741,0.013972,-0.012352,0.063856
near,0.042333,-0.072247,-0.047667,-0.017232,0.176643,0.043933,0.005985,0.073161,-0.010082,-0.071548,0.03777,-0.006081,0.057972,-0.011874,0.003927,-0.038656,-0.06221,0.03838,0.121617,0.000512,0.104533,-0.055847,-0.024547,0.025577,-0.006552,0.010589,0.005401,-0.044214,0.045798,0.020284,0.02939,0.088104,0.014066,-0.060672,0.039707,0.100125,-0.016336,0.009505,0.019845,-0.04612,0.025086,-0.021983,0.005318,-0.034603,0.049596,-0.019635,-0.032194,-0.000584,-0.030394,-0.047686,-0.057128,-0.033645,-0.07436,-0.002088,-0.021682,0.007833,0.010294,0.057672,-0.035025,0.052108,-0.026328,0.121207,-0.052365,-0.132466,0.03347,-0.068305,0.04261,0.006039,0.065276,-0.042669,-0.015419,0.079989,0.005516,-0.097433,0.142321,0.044221,0.016383,0.020984,0.050744,-0.024052,-0.06109,-0.02223,-0.028072,0.098464,0.00239,-0.017381,-0.024642,0.078398,0.028554,-0.003241,-0.073482,0.026502,0.025388,-0.026525,-0.095599,0.026129,-0.068957,0.066968,-0.046397,0.032778,0.012486,-0.028117,-0.043755,-0.080948,0.021668,-0.132694,-0.02677,0.00483,-0.025854,0.075229,-0.048921,-0.002711,0.024812,-0.040896,0.083144,-0.075808,-0.045032,-0.04816,-0.175057,-0.047987,0.053496,0.107434,0.008297,-0.001335,-0.017907,-0.001869,-0.022789,-0.062628,-0.10641,0.005753,0.00629,-0.067295,-0.050043,-0.04011,-0.068796,0.090386,-0.062566,-0.029054,0.048851,-0.010282,0.056395,-0.017278,-0.001133,-0.057157,0.043678,0.003624,-0.014519,-0.027751,0.065186,-0.043092,-0.048286,0.055768,-0.118226,0.047232,-0.081259,0.020263,0.045765,0.071945,-0.067676,-0.028771,0.027336,-0.033805,0.016876,-0.006953,0.081417,-0.095184,0.015703,0.018798,0.012653,0.006612,0.084261,-0.080213,0.039111,-0.03959,0.037847,-0.030506,0.052127,-0.042117,0.017705,0.02802,0.031145,-0.083484,0.032473,-0.106096,-0.058011,-0.062227,0.080992,-0.016368,-0.052448,-0.011636,0.042027,-0.018188,-0.004645,-0.044257,-0.055054,-0.021414,0.056687,-0.099637,-0.050174,0.056498,0.053153,0.007882,0.08167,-0.07583,-0.085111,-0.010336,-0.001973,-0.033397,-0.041317,-0.083316,-0.01663,-0.022516,0.008033,-0.052516,0.010494,-0.057301,-0.036875,0.059698,-0.109786,-0.067578,0.074989,-0.025271,0.049127,-0.052597,-0.016563,-0.021107,0.0825,-0.058229,-0.029299,-0.022502,-0.131206,0.014873,0.0045,0.005595,0.010609,0.028013,-0.041643,0.097307,-0.039225,0.036856,-0.035866,0.09033,0.04243,-0.091301,-0.059682,-0.008962,-0.016197,0.089557,0.02377,0.0467,-0.034411,0.016184,0.026682,0.140476,-0.043586,-0.050473,-0.078359,-0.114889,-0.076352,0.000578,0.036641,0.142614,0.12418,0.023208,0.054343,-0.071509,-0.028528,-0.027491,-0.031396,-0.151748,-0.029121,-0.092634,-0.089917,-0.011345,-0.015044,0.026864,0.018997,0.009209,0.069473,-0.04046,0.055253,0.025286,0.023557,0.077902,0.016244,-0.013948,0.035173,-0.033121,0.026168,0.007889,0.008569,0.076362,-0.110908,0.046452,-0.106801,-0.096875,0.15791,-0.010568,0.042271,-0.087733
much,0.001259,-0.009588,0.094351,-0.093695,-0.006355,0.107897,-0.044704,0.047952,0.054452,-0.069291,0.041934,-0.06859,-0.032235,-0.009831,0.120126,0.003887,-0.088245,-0.02161,0.023265,0.024493,0.011767,0.059231,0.061046,0.051392,0.049757,0.131425,0.012557,-0.052653,0.030876,0.017424,0.015189,-0.090592,-0.005573,0.005898,0.050324,0.032072,0.026483,-0.069602,0.010348,0.096338,-0.042911,0.028991,0.028253,0.039259,0.009587,0.018022,-0.032161,0.016916,-0.092656,0.033116,0.021771,0.072353,0.041384,-0.055566,-0.036719,-0.055751,0.002619,0.074829,-0.023536,0.011597,-0.047628,0.096914,-0.093886,-0.059463,-0.023033,-0.053216,-0.086719,0.024943,0.03065,0.024816,-0.052012,-0.090242,0.011435,0.01765,0.083441,-0.004236,0.09434,-0.071357,0.019527,0.089922,-0.024732,0.082165,-0.051443,0.069626,-0.008171,0.035416,0.026347,0.043842,0.035502,-0.105346,-0.051673,0.045742,0.025167,0.009152,0.038283,0.017198,-0.086695,0.008264,-0.033499,0.018252,-0.071757,0.031127,0.069232,-0.09038,-0.085221,-0.014097,-0.054684,-0.03603,0.066807,0.014723,0.011025,0.062275,-0.093355,0.10839,0.021479,-0.100311,-0.056317,0.066495,0.063426,-0.112897,-0.002887,0.063668,0.081748,0.003336,0.119271,0.049706,0.0149,0.031726,0.082001,-0.025216,-0.0058,-0.015591,-0.038259,-0.00708,-0.040981,-0.065961,-0.023994,0.005683,-0.056248,-0.011925,-0.065305,0.025127,0.088247,0.025807,0.077338,-0.009994,0.037593,-0.085572,0.000366,-0.029406,-0.008078,0.018828,0.01713,0.06855,-0.024819,0.033322,0.09505,-0.04405,-0.065048,-0.009476,0.073326,-0.052995,-0.046835,-0.069688,0.018265,0.010632,0.067512,-0.021183,-0.134961,-0.042581,0.070209,-0.022437,0.051183,-0.054305,-0.096657,-0.062528,-0.087399,-0.06357,0.109731,0.008956,-0.04528,-0.070029,0.006949,0.018664,0.09598,0.046034,0.08911,0.024166,-0.061699,-0.002986,0.008068,-0.099621,0.047965,-0.021319,-0.043877,-0.055917,0.081428,-0.083319,-0.012972,0.056775,0.07065,-0.048774,0.059905,0.042362,0.035688,0.055059,0.021013,-0.06933,0.022285,-0.031506,-0.002607,0.025809,-0.073267,-0.0591,-0.114074,-0.067486,-0.025836,-0.034301,-0.111534,-0.062723,0.030451,-0.006821,-0.043426,-0.045281,-0.086195,-0.048728,-0.084223,0.028884,0.021585,0.022244,-0.05555,-0.055338,0.144476,-0.041337,-0.051427,-0.050259,-0.025705,-0.085379,-0.145366,0.018111,-0.027766,0.025804,0.003713,0.037752,-0.101013,0.021021,-0.042836,-0.008831,-0.039515,-0.078845,-0.01235,-0.017411,0.000496,-0.007014,0.001601,0.066786,0.026854,0.080904,0.005395,0.009693,0.088826,-0.219619,0.070432,0.062139,-0.012891,0.0063,-0.051361,-0.034494,-0.061571,0.046205,-0.113905,0.045277,0.064539,-0.007473,-0.036005,0.07587,-0.020273,0.042901,0.10123,0.060039,-0.001507,0.05432,0.093933,0.05003,0.001692,-0.081293,0.023108,0.025916,-0.035671,0.018894,0.020965,0.077383,-0.005611,0.013715,-0.075894,-0.056947,-0.027414,-0.050235,0.043848,0.032015
book,0.006367,0.030721,-0.037749,-0.03891,0.027506,0.093888,0.058606,0.050201,0.082924,0.019574,0.015535,-0.009296,0.007339,-0.032785,0.049839,0.003218,0.00389,0.099015,0.028379,0.004065,-0.038677,0.129081,0.058312,0.110422,0.060936,-0.041752,0.099959,0.08625,-0.008087,0.062939,-0.002387,-0.062945,0.073861,0.032141,0.024768,0.073522,0.066469,-0.113546,0.015815,-0.004787,-0.057774,-0.034771,0.074896,0.057989,-0.006337,-0.06066,0.065841,-0.077093,0.060448,-0.102679,0.063315,0.031759,0.027105,0.018824,0.041084,-0.016405,-0.064143,-0.068915,0.016105,0.005678,0.022419,0.041752,0.026328,-0.076648,0.058849,0.000956,0.020927,0.030225,0.004443,-0.016803,-0.057971,-0.078504,-0.047872,-0.042492,0.10823,0.086986,-0.044883,-0.150982,-0.011327,0.058406,-0.056082,-0.073254,0.123585,-0.019023,0.078669,-0.003727,-0.017415,0.003456,0.01662,-0.099078,0.106228,-0.05181,-0.045657,-0.001171,-0.090838,-0.051426,-0.017264,0.079299,0.025745,-0.0038,-0.101145,-0.012173,-0.035815,0.012858,0.070771,0.105519,-0.000233,0.016803,0.129517,0.03913,0.069309,0.002875,-0.055748,-0.02991,0.001557,-0.063605,-0.042895,0.065835,-0.044422,-0.031648,0.133935,0.023778,0.076031,-0.009659,0.060593,-0.018892,0.009532,-0.047246,0.038098,0.044436,-0.188739,-0.11792,-0.0289,0.058146,-0.071469,0.113583,0.054182,0.018673,-0.040065,0.037951,-0.09133,-0.029672,0.065588,-0.026632,0.007093,0.103261,-0.009839,0.021251,0.055063,0.035873,0.042447,-0.055064,0.031129,0.022597,-0.002076,-0.02098,-0.059071,-0.001895,0.053431,-0.02446,0.02613,0.027972,-0.086476,0.115312,0.022011,-0.058518,0.046204,-0.112554,-0.022351,-0.021107,0.051888,0.115297,-0.001829,-0.12362,-0.047315,-0.012089,0.023644,-0.050744,0.000271,-0.015552,-0.051339,0.069605,0.042715,0.019059,-0.016474,0.036743,0.03049,-0.002293,-0.168967,0.020095,-0.005702,0.064554,-0.041797,-0.025607,-0.10654,0.076492,-0.120351,-0.014912,0.118118,0.026591,-0.099599,0.001995,-0.037313,-0.030098,0.001375,0.037788,0.009831,0.031611,0.007599,0.019757,-0.087714,-0.009208,-0.050588,0.002102,-0.03036,0.013321,-0.089818,0.02512,0.030919,0.013901,0.096432,-0.037359,0.005003,-0.066483,-0.019095,-0.029181,0.033182,-0.101659,-0.006675,-0.021099,0.000564,-0.036981,0.039755,-0.116792,-0.036636,-0.094581,-0.028051,-0.001238,-0.019267,0.049235,0.07491,0.00822,0.074109,-0.014371,0.000186,0.037408,-0.02015,0.047898,0.10685,-0.026446,-0.145305,0.002821,-0.043534,-0.017804,0.059205,0.06755,-0.01059,-0.012025,-0.035243,0.00663,-0.042952,-0.109472,-0.065258,0.022286,-0.07712,-0.033216,0.045813,-0.060265,-0.059203,-0.076753,-0.080701,0.086922,0.045411,0.010712,-0.01619,-0.017588,-0.006997,-0.029273,0.024991,0.000102,-0.04593,0.027395,-0.045673,-0.053629,-0.018987,-0.001362,0.081516,-0.021181,-0.007369,-0.005625,0.035128,-0.022409,-0.101103,0.033422,-0.10114,0.049462,0.010466,0.010277,-0.027291,0.018429
came,0.004108,0.001176,0.053065,-0.102573,0.005967,0.003944,-0.057858,0.007756,-0.026486,0.008093,0.091729,-0.140518,-0.052347,-0.079529,0.033987,0.034315,-0.027913,0.026576,0.135248,-0.033038,-0.044082,-5.5e-05,0.015014,-0.006838,-0.05929,-0.000495,-0.029034,0.034527,0.078672,0.123032,-0.045851,-0.022286,0.057136,0.029478,0.079831,0.017787,-0.017419,-0.002352,0.056255,0.059433,0.065066,0.023522,-0.024616,-0.007738,-0.150924,0.004609,-0.028713,0.031836,-0.007294,0.019482,-0.00454,0.045544,-0.024539,-0.093379,0.007283,0.054261,0.102988,-0.002896,0.059773,0.089874,-0.005636,-0.00356,-0.05687,0.0452,0.033732,-0.01904,0.013114,0.103665,0.013251,0.019963,0.016921,-0.007009,-0.03872,-0.020131,0.082706,0.141024,0.146194,-0.101184,-0.033698,0.038428,-0.132678,-0.025435,-0.036787,0.082286,0.07977,-0.042449,-0.032862,0.00847,0.013875,-0.081412,0.00081,-0.003818,-0.068066,-0.011122,0.006539,0.062122,0.049005,0.006365,-0.134511,-0.073405,-0.044748,-0.094591,0.04913,0.031333,0.150046,0.016661,-0.073074,0.011306,-0.064302,0.001561,0.138758,0.070421,0.041968,-0.002503,-0.030345,-0.02246,0.036958,0.026114,-0.099158,-0.071138,0.046198,0.033701,0.013018,0.032656,0.018168,-0.083874,-0.083118,-0.120698,-0.008611,0.024435,-0.022418,-0.095781,-0.017432,0.022359,-0.040471,0.015149,0.03923,-0.050877,-0.016239,0.047866,-0.061792,-0.016633,0.053412,0.052681,-0.05284,0.073069,0.094179,-0.054428,-0.049703,-0.048513,-0.029356,0.012432,-0.052284,0.041221,0.029237,0.043064,0.151209,0.044885,-0.062946,0.010464,-0.015059,-0.039518,-0.095335,-0.072775,-0.013423,-0.129402,-0.05346,0.023235,0.011809,0.070318,0.098113,-0.061818,0.043258,-0.093994,-0.038953,-0.003083,-0.018889,-0.04586,-0.027005,0.013324,0.0808,-0.005109,0.115815,0.08135,-0.007728,-0.075867,0.061855,0.006399,0.01446,0.054184,-0.019383,-0.054014,0.107055,-0.089378,0.023693,0.003354,-0.034978,-0.027345,0.01649,-0.023631,-0.100614,-0.097003,0.000795,-0.037354,0.026067,0.087787,0.109122,-0.003007,0.01275,0.018889,-0.04027,-0.102086,-0.024762,0.039372,-0.203123,-0.048739,-0.01826,0.0543,-0.038222,-0.028383,0.051402,0.052546,0.001374,-0.030221,0.014878,-0.094583,-0.09238,-0.13489,-0.004741,0.068444,-0.02089,0.051041,0.056804,-0.052486,-0.013068,-0.084694,-0.028807,-0.067384,-0.019156,-0.083784,0.038671,0.003728,-0.011977,-0.013291,0.027453,-0.054646,-0.03795,-0.04016,0.02906,-0.007167,-0.052939,-0.000105,0.096677,0.024986,-0.00274,-0.042094,-0.056505,0.045791,0.05069,-0.069514,-0.065811,0.029452,0.053704,-0.041216,-0.061216,0.052654,-0.035571,0.040185,-0.041331,0.009482,-0.053888,0.006683,0.006718,0.035947,-0.036476,-0.032434,-0.053835,0.0186,-0.005631,0.031583,0.007303,-0.020144,-0.000912,-0.004062,0.032893,0.031795,-0.011137,0.000711,0.020198,-0.041261,0.02586,-0.067937,0.041519,0.117772,-0.082021,-0.05885,0.001982,0.065116,0.002615,0.068915
late,0.039317,-0.020423,0.042395,-0.062969,0.04098,-0.050368,-0.008136,0.059368,0.034604,0.05612,-0.014967,-0.078188,0.011953,-0.051188,-0.042604,-0.081767,-0.009659,0.081626,0.150465,0.050469,-0.02337,-0.017117,0.017767,0.003875,-0.003827,0.035112,0.028333,0.010193,-0.041134,0.030474,0.050766,-0.046147,0.006913,0.018877,0.080359,0.016861,0.04651,0.006339,0.069641,0.018165,-0.019085,-0.053321,-0.029047,-0.052076,-0.043164,-0.024825,0.031319,0.027044,0.005867,-0.003592,0.075867,0.000284,0.02752,-0.083763,-0.023401,-0.009311,-0.000181,0.156623,0.001464,0.01427,-0.051111,-0.081671,-0.055818,-0.050689,0.038957,-0.052903,-0.106846,0.003502,-0.011418,-0.047349,-0.02882,-0.018442,0.000764,-0.051433,0.030385,0.152142,0.003185,-0.051901,0.031808,0.025942,-0.105651,-0.071195,0.033731,0.128615,0.002785,0.044129,0.00991,0.062024,0.091951,-0.095231,-0.009902,0.134133,0.030089,0.034013,-0.077146,0.054729,-0.006203,0.028304,0.031909,-0.005491,-0.075881,-0.08269,0.130566,-0.078389,0.013936,0.091407,-0.094031,-0.084125,-0.044148,0.006223,0.043905,6.2e-05,0.054423,0.074971,0.015498,-0.049315,-0.017188,0.029388,0.039039,-0.076968,-0.025448,0.020189,0.002939,0.040739,0.04381,-0.014999,0.09084,0.020037,0.01301,0.014375,0.040753,-0.000607,0.000419,-0.01315,0.048343,0.088221,-0.044478,-0.035084,0.002904,0.089279,0.021481,-0.007372,0.038859,0.067296,0.021851,-0.025185,0.026972,0.044204,0.018365,-0.10714,0.04827,-0.035679,-0.013625,0.192696,-0.056923,0.041302,0.047261,0.064515,-0.003197,0.018948,0.02247,-0.098732,0.05218,0.011109,0.024994,0.061145,-0.026341,-0.04779,0.084466,0.080988,0.014171,-0.026818,0.108664,0.003878,-0.003361,0.013006,-0.025919,-0.10857,-0.052263,-0.045747,0.018829,-0.092335,0.048787,0.045326,-0.053838,0.034719,0.073821,0.011232,-0.050233,-0.032676,-0.053932,0.020883,0.047815,-0.101824,0.029659,-0.097634,-0.00121,0.000392,0.040511,-0.021567,-0.043543,-0.105788,-0.083121,-0.033044,0.093025,0.011674,0.087185,-0.027487,-0.046651,-0.017607,0.008337,-0.005911,0.085867,0.033685,-0.126693,-0.092489,-0.068954,0.117479,-0.1148,0.053711,-0.046765,-0.043014,0.053007,0.002436,0.047176,0.036201,0.011775,-0.009224,0.037784,0.03168,0.109814,0.021162,0.006495,0.007464,-0.13209,0.068767,-0.027661,-0.102974,-0.040179,-0.004432,0.006048,0.000506,-0.096731,-0.033052,0.025437,0.032119,-0.082071,0.02765,0.047625,0.042383,0.070662,0.002038,0.092775,0.029595,-0.036725,0.024815,-0.085844,-0.02626,0.024206,0.055884,0.014337,0.002596,0.01106,0.028182,-0.006253,-0.129542,-0.0654,0.096439,-0.027294,0.048441,-0.085164,-0.061962,-0.083978,-0.046554,0.106224,-0.072668,-0.09532,0.043523,0.051268,0.08062,-0.041354,0.101627,0.035026,0.037469,-0.067579,0.002153,0.125946,-0.029903,0.001477,-0.017327,-0.069781,0.069696,-0.127141,-0.0405,-0.056245,0.005499,-0.018346,-0.032735,0.030362,0.064896
side,0.063431,0.004828,0.038442,-0.008685,0.027093,0.009419,0.009306,-0.004737,0.058638,-0.05029,-0.044826,-0.026443,-0.021862,0.101469,0.043122,0.063059,-0.079833,-0.075198,0.115396,-0.00308,0.031811,0.020058,0.027829,-0.016984,-0.087303,5.2e-05,0.004385,0.075827,0.050895,0.032355,0.024827,0.044596,0.002165,-0.113684,0.040635,0.058908,0.059971,0.022081,0.082095,0.003849,0.028053,0.002019,0.037257,0.004673,0.031035,0.01913,-0.054166,0.040647,0.012727,0.024614,-0.035198,0.06453,0.042493,0.064068,-0.011379,-0.000406,0.024815,0.006834,-0.001791,0.039982,-0.013921,-0.030579,-0.092496,-0.004427,0.049457,-0.002974,0.01162,0.02962,0.01269,0.023131,0.017964,0.070314,-0.070848,-0.037411,0.055244,-0.115566,0.120084,-0.053295,-0.053292,0.008611,0.006676,0.09781,-0.059952,0.131765,-0.002556,-0.124329,0.038625,0.07459,-0.012493,0.055954,-0.043722,0.082,0.004495,0.005333,0.045814,0.001666,-0.080362,0.121155,0.005922,0.11787,-0.037355,-0.014848,0.046863,-0.058485,-0.018272,-0.071804,0.07228,-0.086932,0.03251,-0.023678,0.016589,-0.030161,-0.02753,-0.066266,0.140111,-0.01721,-0.058326,0.053291,-0.101959,0.060282,-0.034954,-0.015712,0.051677,0.002075,0.087478,0.071157,0.004189,-0.023379,-0.034083,-0.025237,-0.065014,-0.022644,0.025401,-0.018667,-0.052468,0.129965,0.011889,0.060598,0.041063,-0.050222,-0.131091,0.046161,-0.009034,0.035437,0.096331,-0.034483,0.013864,-0.10402,0.069724,-0.017433,0.014351,0.079076,-0.179227,0.050927,-0.024212,0.041501,0.007932,0.008344,-0.078576,0.003847,0.063996,0.049897,0.01557,0.017639,-0.024819,-0.101318,-0.009701,0.047338,-0.006727,0.014425,-0.07395,0.007171,-0.16126,-0.111357,0.071242,0.022819,-0.086485,0.002457,-0.086486,-0.012215,-0.065302,0.021998,-0.034942,-0.034552,-0.079727,-0.003541,0.080978,0.028004,-0.023068,-0.003824,-0.007575,0.058052,0.046651,-0.031092,-0.042471,-0.048013,0.078583,-0.111773,0.007718,0.118735,0.016366,0.01283,-0.018049,-0.018485,-0.011857,-0.029653,0.026267,0.024193,-0.062239,0.042937,-0.046873,-0.129042,0.012606,0.035478,0.020662,-0.024507,0.001378,0.020349,-0.049541,0.023086,0.009965,-0.037039,0.07815,-0.095824,-0.053009,-0.163233,-0.0039,0.013112,-0.090621,-0.081869,-0.037956,0.022031,0.053602,0.015433,0.0278,0.034333,0.008287,-0.016876,-0.021852,0.018362,-0.08262,0.00591,-0.051142,-0.000941,0.016085,-0.012583,-0.013052,0.042537,0.070518,-0.034014,-0.015913,0.003338,0.044374,0.036183,-0.107174,0.01514,0.036885,-0.098469,0.054099,0.002718,-0.063483,-0.00018,0.098578,-0.108687,0.060162,-0.049631,0.01973,0.118456,-0.043683,0.053821,-0.055955,-0.101196,-0.023432,-0.043522,0.06955,-0.113016,0.043635,0.101089,0.022304,0.018551,-0.019458,-0.014372,0.098972,0.04631,-0.04178,0.016475,0.024849,0.050622,0.03523,-0.001315,-0.07939,0.082326,-0.103721,0.082953,-0.033585,-0.147546,0.034435,0.072031,0.035463,-0.057598
started,-0.00538,0.146972,-0.02702,-0.134869,-0.100618,0.023448,0.006711,-0.02885,0.019115,-0.016837,0.075782,-0.021434,0.064565,-0.008688,-0.126845,-0.050167,0.000757,0.075509,0.136901,0.033247,0.008201,0.115072,-0.014421,-0.052693,-0.042463,0.035333,0.063246,-0.011668,0.024733,0.047539,-0.035232,0.057501,-0.003503,0.015578,0.110189,-0.048902,-0.026282,-0.04092,0.007466,-0.017094,0.075646,0.040031,0.041072,-0.020707,-0.03337,0.038882,-0.023138,0.044045,-0.117957,0.00568,-0.117378,-0.035794,0.027475,-0.106432,-0.036934,0.031791,0.11409,0.081908,-0.039128,0.00126,-0.012316,-0.069814,-0.057177,-0.004086,0.021868,-0.093092,0.035315,0.046546,-0.022666,0.112322,0.033299,0.045532,0.061894,0.040917,0.06249,0.10814,0.044962,-0.043945,-0.020397,0.037447,-0.145859,0.000109,-0.036162,0.037473,0.088274,-0.039938,-0.073094,0.005452,0.083605,-0.054624,-0.004957,0.039992,0.075859,-0.08621,-0.030656,-0.003687,-0.051396,0.03463,0.057772,-0.043761,0.001391,-0.028907,0.059936,-0.005423,0.00513,0.040945,-0.086932,0.048222,-0.036777,0.049391,0.05217,0.057616,0.083575,0.035656,0.011384,0.036476,0.020476,0.032666,-0.048222,-0.091238,-0.045268,-0.063761,-0.002291,0.099639,0.086444,-0.104235,-0.00323,-0.030231,0.006183,-0.084378,-0.085713,-0.061789,-0.016595,0.057676,-0.013378,0.085421,-0.070348,-0.0011,-0.103397,0.000949,-0.072972,-0.09119,0.00462,0.128276,-0.040907,-0.041812,0.032301,0.02814,0.047097,-0.079816,0.015208,-0.005436,-0.004457,0.102808,-0.029948,-0.002664,0.006125,0.029565,0.003979,-0.177257,0.201414,-0.059417,0.043599,-0.037854,-0.016376,-0.086816,-0.010768,0.003929,-0.026106,0.031083,0.007755,-0.042815,0.006624,-0.109602,-0.041968,0.032213,0.015664,0.005804,-0.001461,-0.011549,0.026339,0.015023,0.04728,0.084574,0.016132,0.010433,0.07842,0.029437,0.032584,0.083627,0.004158,-0.01862,0.041178,-0.03387,-0.000531,0.033995,-0.134032,0.022395,0.040184,-0.007199,0.006882,-0.0757,0.04918,-0.035753,0.05659,0.035755,0.114622,-0.055297,-0.052839,0.075959,-0.01024,-0.049202,-0.001366,0.003478,-0.181278,0.016005,-0.102056,-0.021369,-0.032768,-0.008757,0.098389,0.00258,0.015932,-0.055374,-0.033297,-0.073278,-0.070567,-0.1088,-0.056192,-0.002744,0.03066,0.027965,0.019793,-0.056372,0.083858,-0.008274,-0.115165,-0.028078,0.037543,0.00611,0.016998,-0.043387,-0.051894,-0.040795,-0.01026,0.089971,-0.089074,0.038498,0.099001,0.00822,0.000182,0.000956,-0.029956,0.08816,0.010114,0.01688,-0.057812,-0.054462,0.089594,0.037687,0.023096,0.025728,0.025318,-0.01601,-0.076826,0.004288,0.015685,0.042653,0.03091,0.039485,-0.05992,0.009995,-0.071562,-0.012013,0.054009,-0.032684,-0.045577,-0.000401,-0.048767,0.006177,-0.012617,-0.050025,0.003377,0.065592,-0.065006,0.045261,0.001771,0.005389,0.032251,-0.046048,-0.025034,0.082936,-0.023251,-0.031141,0.010061,0.002301,0.116346,-0.00396,-0.063593,0.031876
way,0.011312,0.033369,0.029237,0.007594,-0.008384,0.027716,0.010731,0.046499,0.087655,-0.092083,0.032194,0.019271,0.054635,0.023546,0.023722,0.090817,-0.094713,-0.038143,0.112677,-0.011488,0.061022,-0.04956,-0.04284,0.099251,0.016624,0.016551,-0.050626,0.002115,0.058736,0.014649,-0.042231,0.047953,-0.047921,0.078059,0.0254,0.060471,-0.109351,-0.001681,-0.053593,0.023135,-0.008743,0.068477,0.112326,-0.022217,-0.000601,-0.002531,0.000781,0.033337,-0.055942,0.123032,-0.034191,0.065364,-0.034043,-0.036173,0.000207,0.030044,0.090915,-0.021136,0.032893,-0.025031,-0.077009,0.043458,-0.101883,-0.00046,0.016976,-0.015879,0.033944,0.020537,-0.055641,0.114046,-0.01604,-0.089111,0.006057,-0.02033,0.003831,-0.012455,0.065843,-0.062086,0.029274,0.078286,-0.119839,0.041498,-0.081942,0.095973,0.063096,0.063102,-0.043888,-0.01548,-0.055428,-0.008661,0.003914,0.112334,-0.072437,-0.010971,0.032504,0.100576,-0.02313,0.039828,0.105414,0.166466,-0.012002,0.035194,-0.008716,-0.054636,-0.028102,0.023549,-0.0847,-0.036383,0.066777,-0.044453,0.018788,0.079556,-0.034516,0.045752,0.014855,-0.129774,-0.104591,0.042757,-0.039414,0.061823,0.030374,0.019519,0.009187,0.041693,0.056486,0.007045,0.084324,0.044955,0.086446,-0.079597,-0.097629,-0.005695,-0.001003,0.010994,-0.071769,0.032544,0.000561,-0.095151,0.044257,0.011996,-0.085333,-0.052056,0.120953,-0.015769,0.064104,-0.028181,-0.081294,-0.069179,-0.024836,-0.072672,0.035553,0.074912,-0.080954,0.059739,-0.015867,0.043045,0.035348,0.019349,-0.086366,0.015636,0.053309,0.007275,-0.041366,-0.032225,0.004743,-0.057011,-0.015102,0.027896,-0.048817,-0.000172,0.050054,0.031527,-0.020995,-0.10928,-0.025827,-0.041793,-0.065169,0.055371,-0.062174,-0.059342,-0.052891,-0.001883,-0.004586,0.017234,-0.022733,-0.03572,0.107811,0.045417,-0.071179,-0.079386,-0.105586,-0.10156,0.052443,-0.054892,-0.015497,-0.040511,-0.036932,-0.075831,0.09287,0.01645,0.002738,0.086608,0.089275,-0.068045,0.046279,0.088643,-0.011579,-0.086097,-0.017203,-0.005047,0.012188,0.022624,0.028745,-0.021547,-0.130434,-0.016246,-0.074,-0.015804,-0.0326,-0.105266,0.087054,-0.061768,-0.011636,-0.030569,-0.059571,-0.054232,0.015438,-0.084089,-0.033654,-0.085109,-0.026517,-0.033155,0.15532,-0.006791,-0.089545,0.013203,0.039188,-0.043085,-0.005211,0.063838,0.006876,0.053202,-0.028135,-0.076933,0.003351,0.114798,0.080565,-0.007746,-0.040735,0.021903,0.004194,-0.020793,0.041939,-0.017988,-0.022882,0.076003,0.007537,-0.048259,0.026202,-0.047635,0.034187,-0.002689,0.133225,-0.069461,-0.060665,0.02118,-0.040562,-0.04252,-0.115447,-0.044942,-0.032794,-0.046937,-0.061249,-0.062197,-0.019715,0.023942,0.045833,0.114884,0.072278,-0.011807,0.031574,-0.059951,0.051553,0.034842,0.002639,0.006053,0.006333,0.010543,-0.020496,-0.049242,-0.008509,0.022977,-0.082843,0.076835,-0.025446,-0.065026,0.034762,0.066331,0.131646,0.073665
take,-0.012354,0.074298,0.010141,-0.026753,-0.019596,0.012863,-0.089583,0.018797,0.003705,-0.005952,0.003068,-0.05265,0.007957,-0.062258,0.03518,0.071956,-0.052331,0.145813,0.036951,-0.043113,-0.054798,0.065062,0.024601,0.055761,0.033169,0.039218,-0.07199,0.019013,0.021034,-0.073117,0.061626,0.041275,0.025873,-0.06691,-0.013721,0.014572,0.005409,-0.019318,-0.002899,0.024476,-0.039444,0.010855,0.062151,-0.029257,-0.023746,-0.066034,0.006116,0.003179,-0.045317,0.075097,0.019991,-0.022473,0.112357,-0.028303,0.058935,0.036596,-0.045273,-0.010851,0.021743,0.096788,-0.107936,-0.049792,-0.136104,0.043183,-0.051995,-0.017142,-0.01893,0.1043,0.040565,0.076884,-0.056105,-0.139101,-0.10431,-0.027289,-0.025134,0.052915,-0.016274,-0.036832,0.029112,0.080079,-0.038643,-0.07414,-0.012488,-0.008984,0.051553,-0.038092,-0.078598,-0.032419,-0.081582,0.007487,0.020756,0.037502,-0.002267,0.002569,0.084783,0.014399,0.039413,0.002776,-0.026443,0.066222,0.001072,0.004939,-0.111045,-0.095228,0.038073,-0.088948,-0.056314,-0.061467,-0.088565,0.094445,-0.019017,0.086249,0.058877,0.035538,0.048626,-0.06698,-0.019243,-0.008671,0.11447,0.022546,0.081742,0.001472,0.04049,0.060396,0.01358,-0.005429,-0.032278,0.017745,0.053773,0.029053,-0.055417,-0.026997,-0.1506,0.004653,0.023257,0.075249,0.037352,0.024264,-0.016227,-0.038843,-0.039329,0.00557,0.053174,-0.030778,-0.05013,-0.083706,0.022271,-0.006013,0.03941,-0.069584,0.078446,0.040336,-0.035939,0.057785,-0.027397,-0.025792,-0.016575,-0.061557,-0.017758,-0.064955,0.107512,-0.002204,0.066105,-0.030639,0.020953,-0.026143,0.026947,-0.052115,-0.018971,0.074201,0.000278,-0.024142,0.082789,-0.053463,0.00892,0.021437,-0.076409,-0.025534,-0.065554,-0.101393,-0.093767,0.033915,0.054582,0.084742,-0.094561,-0.089337,0.081051,0.064534,-0.076366,0.034814,-0.052903,0.020891,0.032921,0.004925,-0.11921,-0.040777,0.055166,-0.102304,-0.00133,-0.003554,0.017443,0.002154,0.072402,-0.000978,-0.023814,0.011782,0.100061,0.003676,-0.00274,-0.019055,-0.060957,-0.020384,0.045258,0.005384,-0.114905,-0.069149,-0.03593,-0.035122,-0.00071,-0.022563,-0.177354,0.081184,-0.055456,0.020066,-0.025702,-0.047764,-0.00606,-0.06671,-0.114234,-0.002436,-0.026078,0.133578,0.012706,-0.094218,-0.024125,-0.066513,0.040685,-0.003026,0.025292,0.032827,-0.111174,0.104302,-0.075814,-0.081475,0.03811,0.043609,-0.023032,0.065398,0.007494,0.049212,0.005883,-0.029273,-0.007197,0.007081,-0.011566,0.019278,0.00259,0.041103,-0.027377,-0.105262,-0.040183,0.073352,0.053549,-0.033538,0.007565,-0.016405,-0.010223,-0.03998,-0.100696,-0.065573,-0.089904,0.005824,0.11448,-0.094929,-0.018226,0.073164,0.025943,0.05197,0.011389,-0.08173,-0.059054,-0.048194,0.019389,0.051677,0.067202,-0.060243,0.041772,0.058859,-0.001119,-0.036987,-0.034188,-0.053868,-0.156704,0.044033,-0.026212,-0.153262,-0.027209,0.135786,-0.048724,0.05351
without,-0.030816,-0.023815,0.09398,0.065914,-0.090666,0.09759,0.011848,0.024893,0.005999,-0.138016,0.021557,-0.036585,-0.01246,-0.071701,0.060839,0.043993,0.017697,0.02044,0.054992,0.046055,0.043717,0.104757,0.023028,-0.024678,-0.00803,0.011015,0.061119,0.031188,0.046305,0.052863,-0.111503,0.061956,-0.077504,0.101849,0.026434,0.088385,-0.061004,-0.045208,0.089753,0.059269,-0.004046,0.029691,0.093278,0.044883,-0.045858,-0.006929,-0.022047,0.0817,-0.073987,-0.056379,0.018046,0.029135,0.013733,-0.165913,0.011272,-0.018509,-0.014614,-0.070461,0.009659,-0.038327,-0.042709,-0.006767,-0.029575,-0.036665,-0.083756,-0.071433,0.043134,0.09972,0.001572,-0.006906,-0.01776,0.023216,-0.021569,0.09034,-0.007321,0.002025,0.018146,-0.019029,-0.019245,0.016809,-0.007685,-0.048201,-0.097776,0.073928,0.035014,0.07441,-0.052479,-0.042622,0.028604,-0.041361,0.01942,0.097051,0.026078,-0.054704,0.018254,-0.043767,0.054673,0.079573,0.034532,0.104549,0.060356,0.025156,0.014076,-0.040224,-0.064368,0.065801,-0.054901,-0.021942,-0.000348,0.077436,0.059065,0.056984,-0.045695,0.062284,0.03293,-0.041483,-0.006691,0.001644,-0.003478,-0.04175,-0.062851,0.02274,0.03171,-0.030662,0.005593,0.023397,0.041107,0.002365,0.025777,0.072222,-0.014902,0.062864,-0.072876,0.04858,-0.016412,0.022077,0.040047,0.05055,0.052414,0.026137,-0.040101,-0.020961,0.021914,0.048488,-0.009801,-0.037947,-0.036698,-0.075046,0.016302,-0.01414,0.040567,0.064903,0.008745,0.078797,0.05664,0.109117,-0.009304,-0.038131,0.020609,0.095409,-0.002342,0.016035,-0.041384,-0.095573,-0.015096,-0.054428,-0.058466,0.090437,-0.127509,-0.006744,-0.028211,0.009021,-0.047757,-0.036373,-0.030056,0.007873,-0.03977,-0.14487,0.061909,0.030606,0.079617,-0.020853,-0.005976,0.007809,0.027508,-0.037359,0.078305,0.005106,-0.059043,-0.031843,-0.075884,0.001463,0.060478,0.017251,-0.068946,-0.075265,-0.014177,-0.026618,-0.062189,0.079563,-0.061834,0.063793,0.037176,0.0047,-0.003336,0.045854,-0.002043,-0.11895,0.025906,-0.023915,-0.007437,0.00066,0.011093,0.037681,-0.11645,-0.016362,-0.08333,0.019627,0.013014,0.034641,-0.035001,-0.071909,0.08824,0.045976,-0.080376,-0.082782,-0.054259,-0.0956,-0.054995,-0.078876,0.022002,0.050239,0.102988,-0.045322,-0.052519,-0.104714,0.077278,-0.086158,0.020547,-0.114966,-0.081504,0.025113,0.026278,-0.044786,-0.114528,0.022879,0.100439,0.082208,0.015966,-0.136557,0.072805,-0.004241,0.118147,0.068905,-0.04054,0.025952,0.026002,-0.011772,-0.048646,-0.013548,-0.008546,-0.029291,0.085286,0.015016,0.033824,-0.068325,0.088838,0.033844,-0.192244,-0.001421,0.005753,-0.035756,-0.035467,0.070662,-0.050039,0.042543,-0.067317,0.151476,0.103803,-0.059894,-0.051059,-0.010872,0.053978,-0.069634,0.043691,-0.059403,-0.067132,-0.011277,-0.111152,-0.020886,-0.062586,0.031333,-0.072913,0.073261,-0.012472,-0.028731,0.041198,0.073556,0.032461,-0.009294
old,0.07929,0.095382,0.02932,-0.007793,0.078755,0.102855,0.019879,0.020986,0.013284,-0.052141,0.066494,0.050151,-0.054239,0.049552,-0.067804,0.029318,-0.077761,0.020534,-0.104985,0.067175,-0.010908,-0.037335,0.032908,0.042557,-0.052328,0.058219,0.125742,0.008836,0.02473,-0.012457,0.022046,0.078743,0.077887,-0.046375,0.006744,-0.037744,0.084138,-0.000129,-0.103989,0.004885,0.111288,0.074629,0.041111,0.044538,-0.050537,0.015983,-0.052566,0.042212,-0.010647,0.046857,-0.048475,-0.04572,0.064681,-0.017849,-0.04579,0.06384,0.026513,0.043344,0.115546,0.004246,-0.082658,0.016824,-0.063257,-0.002381,-0.103171,0.042105,-0.061127,-0.026556,0.055077,0.097097,0.052423,-0.029374,0.019684,-0.026268,0.093386,-0.130327,0.062958,-0.035739,0.012978,0.060674,-0.099191,0.0908,-0.06441,0.099988,0.10633,-0.005661,0.00711,0.008057,0.037011,-0.01335,-0.066885,0.004554,0.05102,0.020426,-0.028835,0.008725,0.107838,0.06194,-0.011605,-0.025042,0.0046,-0.017736,-0.035069,-0.043538,-0.051141,0.070603,-0.080804,-0.056653,0.03331,0.073727,0.048239,-0.049135,-0.028778,0.053,0.050446,-0.06802,-0.054055,0.142081,0.022969,-0.117096,0.033939,0.017309,0.182977,0.12423,0.057466,-0.006286,-0.005252,0.051557,-0.063295,0.02424,0.034743,0.018339,0.073539,0.054534,0.022296,0.014938,0.020728,-0.039842,0.105226,0.028954,0.021473,-0.112112,0.092184,0.064301,-0.11354,-0.021792,-0.057814,-0.086879,-0.001577,-0.098984,0.018938,0.017809,-0.037438,0.047253,-0.044358,0.071613,0.010238,-0.022641,0.039198,-0.004791,-0.052553,-0.02727,0.072296,0.07957,-0.005515,-0.003573,0.013173,0.053588,-0.015406,0.063144,0.119503,0.0151,0.052121,-0.040313,-0.036843,0.029402,0.000603,-0.006274,-0.040564,-0.031837,-0.07683,0.004651,0.0317,-0.075817,-0.093703,-0.024286,0.074039,-0.018851,-0.027072,0.029018,-0.029919,0.013054,0.021302,-0.04316,0.00283,-0.049828,-0.009836,-0.056618,-0.025451,0.055915,-0.012679,0.100409,0.116592,0.025986,0.038676,0.05921,0.026361,0.014469,-0.077036,-0.104995,0.02296,-0.024336,0.002106,0.061858,-0.044535,-0.099732,0.097476,0.122113,-0.049421,0.023755,0.02106,-0.011253,-0.021518,0.015239,-0.015594,-0.043458,0.038239,-0.064712,-0.014067,-0.060412,0.058916,0.042291,0.017879,0.001301,0.016678,0.055225,-0.007226,0.027712,0.009893,0.031193,0.039723,0.067329,0.011464,-0.076282,-0.00638,0.015591,-0.004333,0.026607,0.092155,0.079413,0.052345,-0.048503,-0.096349,0.054613,0.003227,0.056698,-0.074468,-0.100004,-0.005942,-0.03459,0.057715,-0.003821,-0.104679,-0.04605,0.033306,0.005684,-0.060074,0.076062,-0.071196,-0.052781,-0.158484,0.024034,-0.028418,0.046157,-0.079341,0.032922,0.019692,0.029865,-0.067048,-0.002114,0.011927,0.056122,-0.032377,0.013203,0.076681,0.010111,0.060092,-0.031776,0.0038,0.00802,0.005088,0.166784,-0.037084,0.00611,-0.061698,-0.087208,0.013075,0.081689,-0.031229,-0.034463
making,0.018327,-0.030427,-0.015137,-0.028576,-0.05033,0.025718,-0.112675,0.08283,0.030443,-0.091065,0.051128,-0.01295,0.0248,-0.000529,0.008078,0.067423,-0.121398,0.140939,-0.004566,-0.111289,-0.030821,0.039114,0.045203,0.004411,-0.029833,0.091694,-0.035237,-0.015654,0.070911,0.011614,-0.031587,-0.018503,-0.087702,-0.022969,0.027469,0.013234,0.026348,-0.026892,0.11161,0.039458,0.042346,0.09305,0.042563,0.014021,-0.044788,0.032085,0.022587,-0.062472,-0.005676,-0.013726,0.005031,0.024979,-0.073056,-0.018267,0.029809,-0.017435,0.033812,-0.052485,0.072933,-0.012539,-0.041176,-0.057266,-0.048688,0.037515,-0.007455,0.061016,0.029646,0.044275,-0.064057,0.097141,0.113155,0.018578,0.010955,-0.035842,0.030637,-0.037458,0.136392,-0.128064,0.122142,0.056291,-0.071372,-0.108105,0.008673,0.14404,0.075516,-0.017049,0.031036,0.003789,0.00825,0.021398,-0.008769,0.094075,-0.043052,0.088514,0.038165,-0.00731,0.053293,0.062713,0.025729,-0.000973,-0.002771,0.053632,0.022397,-0.047478,-0.037748,-0.006154,-0.006144,0.016956,0.075313,0.087981,0.003718,-0.025565,0.036274,0.041272,-0.021999,-0.114496,0.026796,0.060441,0.003977,0.016749,-0.037292,-0.088617,0.092959,-0.017675,0.056929,0.101742,0.037661,-0.079636,-0.048158,-0.030847,-0.095645,-0.053054,-0.036864,0.059525,0.061991,-0.092499,-0.06158,-0.002715,0.117277,-0.037146,-0.054518,-0.038545,0.040951,0.038133,-0.031768,-0.143594,0.080047,-0.109994,-0.017582,0.055196,-0.025596,-0.07547,-0.008842,0.132322,-0.052412,0.091434,0.040802,-0.033076,0.060563,-0.004735,-0.012313,0.018492,-0.082814,-0.042207,0.056594,-0.035372,0.034088,0.06961,0.006059,-0.056881,0.001638,-0.010444,0.048284,-0.097759,-0.055561,0.018363,-0.045224,-0.084305,0.058588,-0.036814,0.013079,-0.058507,0.113318,0.071617,-0.026962,-0.03149,0.035371,-0.061852,0.011829,0.041507,0.044992,0.025078,0.114017,-0.008757,-0.045536,-0.017815,-0.080858,-0.0223,-0.031244,0.024341,-0.163298,0.013716,0.117528,-0.0261,-0.093335,0.064466,0.024411,-0.06915,-0.090581,0.011211,-0.020624,-0.055763,-0.040483,-0.052023,-0.108659,-0.131452,-0.051314,0.075977,-0.013542,0.07927,0.030972,-0.027918,-0.036815,-0.010402,-0.106773,-0.017851,-0.071931,-0.066522,-0.075155,-0.028581,-0.03604,0.021019,0.046797,-0.085006,-0.010965,0.020651,-0.104662,0.048482,0.065232,0.037501,-0.063065,0.00948,-0.131217,-0.024282,-0.025902,-0.007185,0.006029,0.04293,0.05648,-0.056867,0.072818,0.03671,0.12636,0.009531,0.043673,0.041851,0.018475,0.026907,0.067831,0.006453,-0.038182,-0.076902,0.09058,0.030028,0.064223,0.027888,-0.041628,-0.034203,-0.017727,0.036948,-0.029074,-0.012793,0.026259,-0.036104,0.001471,-0.091019,-0.019621,0.08211,-0.008834,0.005904,0.026305,0.046648,0.002374,0.029229,0.021003,-0.001896,-0.08976,0.006313,-0.027187,0.027068,0.001688,-0.012197,-0.072875,0.072612,-0.002769,-0.023892,-0.027252,0.040572,0.059448,0.017406
field,-0.031991,0.126332,0.052061,-0.069637,0.011142,0.021319,-0.011974,0.02683,-0.086372,-0.051599,-0.004517,0.050109,-0.057984,-0.109432,-0.029803,0.00714,-0.069044,0.072324,0.05163,0.042575,0.082463,0.104815,0.034818,-0.070201,-0.058721,-0.036861,0.052665,0.053237,0.004709,0.114348,0.098137,-0.046916,-4e-06,0.041229,-0.045229,0.136746,0.000455,0.028602,-0.024307,0.054886,0.009577,-0.110888,-0.030399,-0.060232,-0.007471,-0.061559,-0.000597,0.08494,0.058575,0.132162,0.002394,0.000451,0.05214,0.094057,-0.129112,-0.046658,-0.034789,0.073153,-0.073666,-0.001456,0.076785,0.002403,-0.042167,-0.014394,-0.032847,-0.058549,0.031286,-0.046031,0.038496,0.075484,4e-06,0.024595,-0.102043,-0.097197,0.037042,-0.026597,-0.012751,-0.161198,0.008801,-0.045438,-0.071408,-0.092565,-0.045163,-0.011037,-0.017346,-0.024074,-0.115419,0.06532,0.062391,0.014366,-0.022532,0.006707,-0.047424,-0.021057,-0.021552,-0.050094,-0.024622,-0.067193,0.027579,0.106755,0.091116,0.040973,0.013943,-0.025432,-0.016992,-0.01549,-0.004881,-0.057216,0.035683,0.073045,-0.029976,0.080698,0.104561,0.024956,0.078751,-0.07326,0.005765,0.062526,0.035025,0.04056,0.036072,0.083838,0.066609,0.035165,-0.008251,-0.003271,0.061109,0.084094,0.084111,-0.112968,-0.019901,0.073655,-0.06989,0.057963,-0.050325,0.007062,-0.04278,-0.023227,0.03963,-0.027164,-0.013101,-0.056678,0.069953,0.098911,-0.006269,0.083416,0.030472,-0.016632,0.062474,0.040201,0.0869,-0.024398,-0.114371,-0.015772,-0.078218,0.074984,0.042898,-0.036136,-0.060067,0.041541,-0.006108,0.037459,-0.045007,0.009766,0.004159,-0.071467,-0.045703,-0.063098,0.093557,-0.014051,0.06178,0.032173,-0.014355,-0.07497,-0.032464,-0.072473,-0.064979,0.012912,-0.049881,0.067178,-0.072232,-0.118998,-0.002485,0.056083,-0.031633,0.011575,0.054903,-0.0217,0.013692,0.026136,-0.034026,-0.057405,0.094078,-0.031281,-0.078329,0.058818,-0.120082,0.012927,-0.012359,-0.030706,-0.037084,-0.119622,0.063877,0.010929,0.057082,0.036086,0.009857,-0.039035,0.002334,0.088515,-0.050159,-0.042989,-0.062602,0.063323,-0.089368,-0.001665,-0.042937,0.062763,0.023912,0.076071,-0.00836,0.040925,0.018014,-0.037652,0.017568,-0.017624,-0.036721,-0.009458,-0.070949,-0.127059,-0.05169,0.01131,0.034516,-0.029256,0.030542,0.04271,0.10683,0.027654,-0.027686,-0.105157,-0.01544,0.041864,0.013015,-0.020116,0.029706,0.105456,0.026163,0.009313,-0.116248,0.089,0.00863,-0.052848,0.057907,-0.097024,-0.006085,-0.028164,0.031459,-0.074189,0.054013,0.051081,-0.009391,-0.077802,0.005144,-0.043189,0.079649,0.001597,0.085303,-0.053484,-0.011095,-0.086027,0.006639,-0.0527,-0.104143,-0.017841,-0.052196,0.082449,0.006124,0.071042,-0.059136,-0.009761,-0.038316,-0.046188,0.141234,0.030377,0.059449,-0.036598,-0.043715,-0.031373,-0.001574,-0.027662,-0.016291,-0.007513,-0.031012,-0.007658,-0.00813,0.003522,0.07409,-0.025063,-0.030628,0.0659
never,-0.023679,-0.016135,0.088655,-0.114106,0.001378,0.033288,-0.091677,0.064488,0.020274,-0.042136,0.077579,-0.045264,0.00684,-0.057142,0.096993,0.024177,-0.040824,0.026055,0.144894,0.035763,-0.012461,-0.043886,0.085615,-0.010624,0.040858,-0.029937,0.023508,-0.029234,0.04437,0.056923,-0.167249,0.022434,0.093278,0.014734,-0.01422,-0.021911,0.030222,0.07217,0.098562,0.010196,-0.041895,0.065202,0.065146,0.080313,0.02821,-0.004317,-0.071416,-0.033808,0.032474,0.001771,0.030544,-0.044182,-0.002331,-0.083495,0.006822,-0.048283,-0.053625,-0.057941,-0.012797,-0.015826,0.061535,0.054675,-0.047826,-0.058153,0.00656,0.002922,-0.130184,0.057838,-0.015017,0.015125,-0.032694,0.005659,0.098024,0.123217,-0.047787,0.007865,0.001342,-0.132534,0.024742,0.049979,-0.048527,-0.048788,-0.040496,0.066565,-0.003368,-0.001077,-0.100046,-0.021548,0.054643,-0.092303,-0.007494,0.022239,0.031097,0.013668,0.041669,-0.028479,-0.046288,-0.064149,-0.041657,0.082257,-0.040195,-0.133169,0.050335,-0.002977,-0.004891,0.030223,-0.094774,0.006269,-0.010226,0.024133,0.065192,0.098919,0.004494,0.063584,0.026089,-0.112455,-0.050845,0.112279,-0.0457,-0.033525,-0.025923,-0.02077,0.091834,-0.014536,0.066554,0.046303,-0.007338,-0.034982,-0.020074,0.04616,-0.038742,0.05551,-0.040262,0.081117,-0.04074,0.052518,0.064421,0.145739,0.006819,0.020519,-0.091139,-0.101571,0.156904,-0.020751,0.055059,-0.001384,-0.018784,-0.059769,-0.004662,-0.038807,0.022745,0.007404,-0.003246,0.026531,0.003365,0.000937,-0.034496,-0.01525,-0.100862,0.012531,-0.024711,-0.019521,0.029897,0.021985,-0.060676,0.00537,-0.038967,0.054687,-0.049599,-0.079961,0.010908,-0.053192,0.078191,-0.00951,0.027446,-0.044904,-0.060776,-0.015837,0.013897,-0.003664,0.072913,-0.053648,0.063649,0.052425,0.011488,-0.067915,0.07991,0.068663,-0.050931,-0.003246,-0.080553,-0.093453,-0.032658,0.009057,-0.008333,-0.005033,0.073289,-0.041042,0.025495,0.055755,-0.003348,0.00845,0.102448,-0.066994,0.109454,-0.012842,-0.147931,-0.033625,0.054878,0.021212,-0.005411,-0.112938,-0.015167,0.035755,-0.034024,-0.043423,-0.058804,0.042671,0.050772,-0.000726,-0.048957,-0.064732,0.003533,0.012417,-0.043677,-0.017019,0.029844,-0.082893,0.016768,-0.110511,0.12694,0.030453,0.091854,-0.006725,-0.035096,-0.072222,0.102105,-0.045489,0.002573,0.024852,0.003139,0.022095,-0.013224,-0.004858,-0.078428,0.10666,0.015653,0.010766,0.000366,-0.033784,-0.015169,-0.134129,0.046973,0.118771,-0.029139,0.022144,-0.105141,0.02521,-0.04878,-0.082987,0.033815,-0.06496,0.023151,-0.013761,0.037191,-0.011258,-0.00591,-0.001403,-0.15092,-0.018322,-0.069716,-0.017342,0.003041,-0.048192,0.031497,0.066194,-0.006514,0.06889,0.082363,0.078313,0.002257,0.068304,0.038384,-0.080492,-0.015356,-0.045774,0.032153,0.123971,-0.037548,0.003847,-0.009746,0.098242,-0.086846,-0.034138,-0.020703,-0.113413,0.0335,-0.013935,0.034672,0.030858
across,0.036826,-0.061735,0.021747,-0.05867,0.060415,0.055962,-0.053794,0.023236,0.06106,-0.071744,0.030136,0.003357,0.013864,-0.014242,0.053952,0.037949,0.00211,0.037089,0.011604,0.054829,0.092701,0.026613,-0.018422,0.082193,-0.067716,-0.027058,0.118518,0.026725,0.010107,0.050796,-0.005008,0.014775,-0.023463,-0.015958,0.03037,0.039456,-0.068884,-0.045368,0.011786,-0.044055,0.062276,0.03422,0.092024,-0.065598,0.000578,-0.145132,0.024612,0.012017,-0.080074,-0.025432,-0.053977,-0.039841,0.031639,-0.072091,-0.029381,-0.080774,0.083327,0.001685,-0.036173,0.054851,-0.052797,0.049559,-0.127217,-0.12615,0.061372,-0.020272,-0.045915,0.004653,0.126064,0.090336,-0.05018,0.009427,-0.098136,-0.059424,-0.047427,0.015358,0.071212,-0.037621,0.053096,-0.012648,-0.036044,-0.056167,0.027155,0.149451,0.051919,0.040613,-0.028843,0.04376,0.043371,0.003849,-0.002203,0.007805,-0.004606,0.007903,-0.114228,-0.032355,0.087063,0.01427,0.021412,0.120957,-0.00739,0.047288,-0.059745,-0.113333,-0.017665,-0.059063,-0.032713,-0.003171,-0.017965,-0.081522,-0.016068,0.050686,0.006465,0.019197,-0.028787,-0.018514,-0.089947,0.094871,-0.068023,-0.03878,0.013163,0.167588,-0.032689,0.061893,0.010288,0.038331,0.025396,-0.018553,0.017015,-0.048979,-0.016869,-0.016878,-0.126522,0.04708,-0.004595,-0.012142,-0.040354,-0.147836,0.096778,-0.116272,-0.051636,-0.028483,0.047316,-0.01499,0.045889,-0.038549,-0.018803,0.093006,0.050097,-0.001964,-0.037955,0.020766,-0.124492,0.000244,-0.105984,-0.018742,-0.036093,-0.000916,-0.07878,0.020798,0.02154,0.043266,-0.121136,0.089222,0.040098,-0.085172,-0.036813,0.154618,-0.078469,0.024314,0.019274,-0.028568,-0.001751,-0.058235,0.143364,0.031844,-0.051195,-0.070715,-0.058372,0.049373,0.002003,-0.006029,-0.015247,-0.068728,-0.054151,0.015149,0.058515,-0.01539,-0.107047,-0.056309,-0.050287,-0.078404,0.061966,0.035786,-0.076759,-0.155441,0.006068,0.006059,0.101187,0.071605,0.037586,-0.023791,0.037174,-0.045339,-0.086362,0.021723,0.011899,0.003846,0.02207,0.024098,0.003011,0.02713,-0.100647,-0.068364,-0.049634,-0.027246,0.067631,0.005637,-0.036976,-0.01218,0.087492,0.029506,-0.04203,-0.091183,-0.028912,-0.036259,0.013271,0.020454,0.010898,0.01358,-0.027713,-0.021623,0.047632,-0.042961,0.031475,-0.006215,-0.016861,0.066836,0.022339,0.077043,-0.089238,0.031265,-0.051089,0.000134,-0.022573,0.020987,0.016801,0.06347,-0.03621,0.007894,-0.000556,-0.003059,0.019551,0.114013,-0.056234,-0.01446,-0.052509,-0.034245,-0.023188,0.05862,0.042491,0.023871,0.132708,0.012089,0.072674,0.028679,0.081705,0.023799,0.020459,-0.063221,-0.045661,-0.083106,-0.128033,-0.08312,0.060447,-0.015158,-0.030811,-0.004707,0.081819,-0.033394,0.060163,-0.005833,0.009893,0.016889,0.054568,-0.123485,0.031225,-0.050271,0.000783,0.036672,0.042566,0.015891,0.053382,-0.060095,0.041047,-0.066359,-0.000962,0.048938,-0.012252,0.072566
see,-0.021308,0.009923,0.082023,0.04021,0.022466,0.101177,-0.077432,0.013173,0.066328,-0.037696,0.070584,0.005083,0.036383,-0.059529,0.057818,0.09386,-0.011045,-0.008131,0.014611,0.07815,-0.104251,0.109858,0.09953,0.122467,0.092697,-0.001221,0.023922,-0.030873,-0.048041,0.008951,-0.113633,0.019449,0.114073,-0.017718,0.014919,0.038557,0.019173,-0.005332,-0.022656,-0.012437,-0.031733,-0.001481,0.026915,0.004153,-0.018923,-0.028456,-0.06688,-0.048859,0.055088,0.013896,0.071902,0.049029,0.121204,-0.020227,0.059359,0.02292,-0.051508,-0.048745,0.079434,0.021031,-0.012441,0.021188,-0.108894,-0.038474,-0.055005,-0.138156,-0.057726,0.070918,0.151216,0.042096,-0.067121,-0.087075,0.057503,-0.018676,-0.000631,0.06348,0.025481,-0.129907,-0.02301,-0.044271,-0.052287,-0.036551,-0.002292,0.064314,0.060997,-0.107528,-0.056588,0.092362,0.014407,-0.017677,-0.047018,0.07677,-0.020903,-0.039882,-0.086187,-0.02501,0.002241,-0.013736,-0.033888,0.106437,0.03171,-0.00537,-0.002,-0.0426,-0.05335,-0.019081,-0.085124,0.041466,0.055791,0.003014,-0.013345,0.071918,-0.050665,0.071352,-0.021498,-0.072288,-0.018719,0.030929,0.007527,0.012853,-0.022259,-0.006573,0.025244,-0.039384,0.063378,0.063883,-0.025795,-0.018309,0.055993,0.017935,-0.026258,0.001287,-0.027318,-0.055673,-0.068192,0.030831,-0.063064,0.098347,0.106081,0.023646,0.008777,-0.116617,0.050664,-0.063508,-0.006788,0.07856,0.07583,0.009092,0.01836,-0.023822,-0.009524,0.045355,0.042398,0.084845,-0.024379,0.033645,-0.005041,-0.012159,-0.041354,-0.066874,0.063022,-0.031223,-0.089379,0.052457,-0.020064,-0.036176,-0.009894,0.048293,-0.030839,0.043636,0.008026,0.072077,0.024653,-0.077517,-0.040093,0.026228,0.032134,0.003144,-0.103435,-0.014042,0.009073,-0.014841,-0.028819,0.040157,-0.044029,-0.044498,0.029879,0.070321,-0.098186,0.000557,-0.007724,0.012109,0.117773,-0.047592,-0.13444,-0.021168,0.096012,-0.115558,-0.011051,0.053871,0.034636,-0.006204,0.001804,0.038034,-0.019622,-0.007322,0.043257,-0.053381,-0.032488,-0.082346,-0.050056,0.040862,-0.095634,0.070102,-0.105723,-0.086187,-0.103151,0.056456,-0.007795,-0.060977,-0.039453,-0.04224,0.028995,-0.005945,-0.053015,-0.064798,0.023789,-0.061852,-0.02743,-0.106876,-0.015729,0.013087,0.191347,-0.018083,-0.040309,-0.028135,0.014879,0.072562,-0.003264,-0.110474,0.018647,0.093815,-0.14941,-0.042541,0.031698,-0.008223,0.088928,-0.049118,0.132206,0.036775,0.037636,-0.028421,0.038882,0.011431,0.073905,-0.041213,0.003584,-0.042668,0.031164,-0.102169,-0.024124,0.025503,0.045786,0.113151,-0.005239,0.029834,-0.045815,-0.082744,-0.073878,-0.038231,-0.033716,-0.018766,-0.016008,-0.008333,0.070156,0.024112,0.009209,0.044927,0.088519,-0.030307,-0.045008,-0.054658,-0.019632,0.071776,0.07961,0.000457,-0.026784,0.023238,-0.073266,0.004988,0.067099,-0.05963,-0.067174,-0.019296,-0.092812,0.027337,-0.017273,0.083726,0.012301,0.049581
features,0.052284,-0.042331,0.054338,0.039767,-0.072998,0.042476,0.024466,-0.060454,-0.087372,-0.016906,-0.065117,-0.054529,-0.01573,-0.024502,0.016408,0.043654,-0.035853,0.082983,0.048309,-0.007043,-0.040503,-0.077619,0.052201,0.010871,-0.041182,0.000242,0.083159,-0.009768,-0.028043,0.061917,0.01177,-0.004133,0.100456,0.022335,0.089259,0.039005,-0.043979,0.010823,0.087975,0.061405,0.052054,-0.021469,0.03209,-0.04034,0.024063,-0.051788,-0.021264,-0.093896,-0.030033,-0.003788,-0.060949,-0.002039,0.053786,0.111372,0.083263,0.006348,0.129623,-0.033495,0.054893,0.002277,0.087629,0.003648,-0.105333,-0.034748,0.01047,-0.084936,-0.032431,0.076412,0.050537,0.09295,0.011299,0.091279,-0.052111,-0.099261,0.001633,-0.052523,0.108693,-0.077394,-0.051311,-0.000451,-0.061389,0.101145,-0.018736,-0.006208,0.151538,-0.044755,-0.025428,0.03374,0.110415,-0.006612,0.003847,-0.000852,0.014134,-0.063111,-0.061381,-0.024955,0.018587,0.029336,-0.017419,0.079344,-0.110557,0.042586,-0.025392,-0.087105,-0.045308,-0.038472,0.095406,-0.039848,0.028097,0.066845,-0.057237,-0.070474,-0.080112,0.086885,0.027696,-0.038821,0.064504,0.12787,-0.041275,0.059074,0.013038,0.032866,0.083648,0.052506,0.053526,0.071436,-0.003273,0.037459,0.032769,0.026136,-0.137396,0.051721,0.016482,-0.10859,-0.030214,0.033706,-0.035923,-0.145341,0.128408,-0.052313,0.049361,0.025663,-0.045327,-0.034749,-0.103821,-0.109827,0.076612,0.041725,-0.033547,0.033191,-0.048311,0.00327,-0.033025,0.075528,0.006345,0.119888,0.021061,-0.025246,0.040592,-0.044558,0.092668,0.023577,-0.025788,0.018412,-0.00732,-0.043163,0.129395,-0.075735,0.009679,0.068264,0.048529,0.030956,-0.052261,-0.003212,-0.07695,-0.009737,-0.006529,-0.029521,0.118319,-0.025097,-0.037197,-0.043835,0.024644,-0.04305,0.015844,0.1105,-0.059233,0.078304,0.035489,-0.040174,-0.048716,0.069445,0.036813,-0.091187,0.044399,-0.026083,-0.002239,-0.046899,0.08716,-0.012248,0.008861,-0.062185,-0.004072,-0.050657,-0.001309,-0.07044,0.031142,0.025299,-0.029661,-0.032729,-0.01315,0.005585,0.065007,0.064466,-0.022402,0.004736,-0.033065,0.056001,0.076349,0.044633,-0.055308,-0.039754,-0.008413,-0.045553,-0.0258,-0.014178,-0.009949,-0.009127,-0.003933,-0.095899,0.00216,-0.044367,0.111515,0.008969,0.029626,0.035976,0.019345,-0.046081,0.052668,0.158873,-0.057439,0.055534,-0.033741,-0.049702,0.001088,0.074904,-0.006735,0.05515,0.056856,0.042587,0.048373,0.026752,-0.085799,0.034601,0.016511,-0.009536,0.074394,0.015212,0.00926,0.101514,-0.007982,0.040819,0.053659,0.004229,-0.046329,-0.043499,0.054421,-0.006392,-0.067007,-0.008549,-0.052958,-0.014888,-0.067109,0.033266,0.067503,0.022219,-0.06941,0.043382,-0.032444,0.123024,-0.031309,0.041099,-0.032524,0.062014,-0.049225,-0.102579,-0.002774,0.00047,-0.100301,0.04638,-0.038734,0.024457,-0.028558,0.096189,0.030153,-0.005047,-0.072695,-0.010103,0.087317,-0.133573
seen,-0.023126,-0.062227,0.064863,-0.009724,0.01548,0.071358,-0.11889,-0.02088,0.058199,0.056858,0.056881,-0.034926,-0.02449,-0.025263,0.019042,-0.012293,-0.090089,-0.017778,0.047969,0.069092,0.024164,0.021243,0.166718,0.074969,0.008575,0.058828,0.069625,0.012204,-0.019914,0.078635,-0.096285,0.047822,0.043389,-0.005042,-0.037936,0.016816,-0.014183,-0.088869,0.017409,-0.042213,0.005434,-0.009763,-0.002461,-0.040231,-0.000721,-0.050602,-0.085726,0.007938,-0.019104,-0.002346,-0.090554,0.03957,0.129928,0.010684,0.012088,0.034766,0.038774,-0.057624,0.003676,0.057781,-0.030292,0.100195,0.018712,-0.163281,-0.079802,-0.033899,-0.042295,0.147466,0.086283,0.010539,-0.021725,-0.027763,-0.052969,-0.128375,0.009313,-0.080996,0.054906,-0.068392,0.07842,0.002094,-0.11363,-0.012376,0.015438,0.01454,0.036776,-0.052844,-0.107091,0.063168,0.047993,-0.014295,0.027767,-0.021253,0.095676,-0.032164,0.020191,0.016585,0.038139,0.010847,-0.007683,0.035499,-0.085354,-0.027906,0.011358,-0.034108,-0.029039,0.003516,-0.070729,-0.070701,-0.006691,-0.026854,-0.011302,0.048012,0.000275,0.201873,0.013589,0.043247,0.013522,0.060958,-0.155511,0.01106,-0.072037,0.023718,0.020177,-0.004251,0.07927,0.063128,-0.051567,0.01633,0.080611,-0.067545,-0.028872,-0.03403,-0.088966,-0.037441,-0.039634,-0.006562,-0.001833,0.031874,0.15384,0.013824,-0.025622,-0.032557,-0.024052,0.085793,-0.050811,-0.043736,0.021845,0.001625,0.040798,0.034334,0.03733,-0.005392,0.029291,0.151658,-0.046194,0.097971,-0.058688,0.01628,-0.054787,-0.12657,-0.011046,0.022558,-0.097274,0.043318,0.026484,-0.078547,-0.010929,-0.01976,-0.108156,0.072426,0.040947,0.060913,-0.006442,-0.077565,-0.056502,0.021683,-0.067113,0.03604,0.029961,-0.10034,0.017829,-0.028183,-0.101536,-0.043264,0.036476,-0.000771,0.035135,0.115938,0.016753,0.04848,-0.023292,0.035174,0.045406,-0.081016,-0.015484,-0.054832,0.014977,-0.045466,0.037242,0.031668,0.010402,-0.007218,0.092599,-0.019092,0.054755,0.020399,0.045777,-0.038938,0.027087,-0.016678,0.018589,-0.001987,-0.013177,0.110324,-0.154707,-0.174591,-0.079064,0.090368,-0.005077,0.012271,-0.027893,-0.029744,0.023525,-0.045066,0.002942,-0.012669,-0.081884,-0.073682,0.047197,-0.008037,-0.043742,0.003247,0.108599,-0.047878,-0.029361,-0.063359,0.036818,0.019665,-0.089919,-0.065968,-0.01959,0.097424,0.004874,-0.069661,0.05589,-0.079701,0.068691,0.008847,0.067543,0.014311,0.034111,-0.027135,0.00763,0.016832,0.055405,0.002951,0.085582,-0.130588,-0.041657,-0.045786,-6.1e-05,0.04268,0.009199,0.053894,-0.007809,7.5e-05,-0.077033,0.025074,-0.066626,0.01692,0.018771,9.9e-05,0.004743,0.043973,0.01589,0.052923,0.015902,0.060528,0.098755,-0.014568,-0.022931,0.007013,-0.027777,0.028389,0.073933,0.039606,0.042684,-0.009953,-0.115041,0.035461,0.02365,0.01009,-0.016313,-0.021614,-0.037734,-0.012472,-0.038694,0.065007,0.052944,-0.025427
mother,0.007815,0.026617,-0.036383,-0.051246,0.000183,0.071259,0.017416,-0.001849,-0.00768,-0.019241,0.073528,-0.02436,-0.004241,-0.035618,0.055655,0.04545,0.010846,0.017943,0.047531,0.00801,-0.032703,-0.023072,0.016848,0.079668,0.001918,0.017755,0.07844,-0.02801,0.0248,-0.006757,-0.015152,0.023156,0.018583,-0.06526,-0.096587,-0.00972,0.093268,-0.061956,-0.051635,-0.032022,0.09616,0.0217,0.08972,0.011385,-0.034067,-0.027631,-0.015448,0.055396,-0.038809,0.107378,-0.013196,0.01314,0.032628,0.022141,0.083477,-0.059144,0.034474,0.02383,0.017571,0.075589,0.035704,-0.055553,-0.020775,-0.00553,-0.105007,0.037657,-0.020989,-0.080814,0.011513,-0.016758,0.053142,-0.036861,-0.016374,0.090866,0.058253,-0.02651,0.070701,-0.100407,0.00912,0.152773,-0.061642,-0.014704,0.00307,0.076667,0.028834,0.014727,-0.041959,-0.009239,0.04578,-0.033988,0.041938,-0.019589,-0.024331,-0.059325,0.03904,-0.065375,-0.033521,-0.04485,0.041772,0.017486,-0.00742,-0.012142,-0.027475,-0.076406,-0.026309,-0.055381,-0.005819,0.004166,-0.021117,0.033961,-0.043789,-0.036314,-0.136628,0.041759,0.00134,-0.043199,-0.114689,-0.018054,0.030258,0.002772,-0.001371,0.083293,0.029044,-0.081162,0.093684,0.016125,-0.016518,-0.016296,0.055814,-0.046753,-0.084673,-0.076166,0.099875,-0.041057,-0.00869,0.090831,-0.011508,0.057821,-0.01308,0.119705,-0.007267,-0.116391,0.094323,0.02413,0.001581,-0.026012,-0.05321,0.051492,0.051171,-0.003703,0.043772,-0.070155,-0.063852,0.031229,0.012706,-0.032927,-0.023121,-0.007216,-0.032712,-0.051062,0.003766,-0.099812,0.022922,0.090444,0.017366,-0.157406,0.032534,0.087164,-0.116006,-0.023958,0.059938,-0.043571,0.134572,-0.053721,0.10301,-0.079867,0.009197,-0.086761,-0.025631,0.125215,0.08529,0.053565,-0.041762,-0.006674,0.035368,-0.028968,0.133617,0.036573,0.02189,0.011368,-0.076536,0.090375,-0.027743,-0.05386,-0.14375,0.059208,-0.095741,-0.002201,0.025193,0.033208,-0.146903,-0.026316,0.078555,0.049339,0.075875,0.023411,0.040244,0.016375,0.004512,-0.131718,-0.063679,0.035978,0.047799,0.045502,-0.038373,-0.027089,-0.032056,0.081113,-0.052431,-0.018659,-0.05233,0.01333,0.030506,0.042842,0.016802,-0.050223,0.03746,-0.072816,-0.015123,-0.053464,-0.048032,0.053914,0.044534,0.006634,0.009942,-0.037469,-0.034662,0.102536,-0.084632,-0.000692,0.046749,-0.06402,-0.021242,0.09139,-0.073088,-0.040319,0.060965,-0.029462,-0.025823,-0.005347,0.003879,0.024607,-0.054526,0.035781,-0.025831,0.024626,-0.098126,-0.085794,-0.114269,-0.025216,-0.004589,0.050137,-0.052834,-0.025179,-0.010702,-0.122016,-0.067708,0.110469,-0.039756,-0.002757,-0.092176,-0.018277,0.090117,-0.002335,0.002429,0.040557,-0.024886,0.088442,0.012322,0.065456,-0.065792,0.02854,-0.022814,0.046805,-0.058222,-0.029102,-0.041231,0.139584,0.01236,-0.042579,0.029299,-0.004334,-0.036651,0.120491,-0.045419,-0.153551,0.065113,-0.029456,0.112433,0.012937
either,0.008971,-0.02989,0.107609,-0.005587,-0.069258,0.042138,-0.027018,0.050244,0.022037,-0.137082,-0.035639,-0.077524,-0.075173,-0.038047,0.016171,-0.036728,-0.096552,0.067475,0.010061,0.019916,0.00646,0.013609,0.04504,-0.088859,0.021358,0.000742,0.014472,0.064625,0.017691,0.094977,-0.029827,0.066081,-0.009381,-0.062655,-0.064342,0.049731,0.0063,-0.059528,0.173125,0.065002,0.011623,0.011827,0.104339,-0.093978,0.075742,-0.089853,-0.087509,0.067786,-0.04421,0.106694,-0.000231,-0.061763,-0.006503,-0.062976,-0.030633,-0.006783,0.043086,-0.04004,-0.132556,0.049464,0.025136,0.007035,-0.076662,-0.116958,-0.015687,-0.08845,0.00973,0.039015,0.053221,0.073841,0.012821,0.027831,-0.086235,0.006681,0.009085,0.010187,0.066685,0.013614,-0.016632,0.00661,0.018705,-0.045883,-0.067305,0.202997,-0.089203,-0.022885,0.01953,0.040871,0.020019,0.045609,0.082849,0.024835,-0.025055,-0.080065,0.002454,0.094307,0.019914,0.033332,0.026838,0.090282,0.030095,-0.065795,-0.01501,-0.038186,-0.06905,-0.005094,-0.053406,0.061617,0.048072,-0.015421,0.036326,-0.030891,-0.085722,0.059389,0.017844,-0.063004,-0.04457,0.062303,-0.043856,0.040219,-0.016199,0.070376,0.05351,0.007147,-0.008349,-0.027957,-0.01776,0.02199,0.107064,-0.009668,-0.042555,0.054096,-0.06001,-0.015337,-0.010093,0.030575,0.052467,0.019129,0.079797,0.006723,-0.091674,-0.075236,0.095304,0.051266,0.099765,-0.079083,0.049283,-0.063989,0.054505,-0.027002,0.024374,0.053021,-0.104217,0.057152,0.034266,0.028088,-0.100209,0.022926,-0.043965,0.039779,0.007496,0.018636,0.010129,-0.079088,0.042021,-0.071533,0.035711,0.044332,-0.055258,-0.027202,-0.03937,-0.010094,0.085429,-0.110836,-0.013211,-0.066764,-0.146494,-0.101484,-0.03619,-0.008756,-0.029519,0.006216,0.044448,0.03239,0.023799,-0.079753,0.043396,-0.034283,-0.02125,0.116542,-0.080949,0.014171,0.004023,-0.052717,0.067682,7e-06,0.03309,-0.057528,-0.093787,0.115427,-0.019101,0.062492,0.035436,-0.014434,0.042542,0.021135,-0.010422,-0.003914,-0.036623,-0.027503,0.025977,0.012566,0.041011,0.018552,-0.105038,-0.009825,0.03073,-0.001378,-0.00379,0.029892,0.003794,-0.076639,0.053844,0.089489,-0.068545,-0.114606,0.005698,-0.10434,-0.01237,-0.055956,-0.023598,0.059818,0.036544,0.089106,-0.014746,-0.084658,0.109098,-0.046232,0.001831,0.033789,-0.114103,0.052649,0.038277,-0.023666,0.012871,0.007126,0.045739,-0.003728,-0.116058,-0.091562,-0.030072,-0.013413,-0.004228,-0.022824,0.047799,-0.020235,0.034473,-0.074556,-0.021432,-0.019931,-0.019634,-0.023279,0.094006,-0.07377,0.027724,-0.067251,0.01352,-0.036278,-0.13393,-0.038648,0.01902,-0.043747,-0.000533,0.029488,0.037461,0.025586,0.026734,0.12101,0.074864,0.019258,-0.034546,0.003256,0.004061,-0.040621,-0.00339,-0.032697,-0.05517,0.03006,-0.112061,0.067798,-0.004788,-0.000134,-0.103719,0.022712,-0.07023,-0.026858,-0.003482,0.005957,-0.03311,-0.115325
